tree
version=v4
num_class=1
num_tree_per_iteration=1
label_index=0
max_feature_idx=8
objective=binary sigmoid:1
feature_names=amount_eur log_amount hour dayofweek is_night method_id currency_id amount_z is_new_user
feature_infos=[4.5999999999999996:9343.1499999999996] [1.7227665977411035:9.1425057580213505] [0:23] [2:5] [0:1] [0:3] [0:2] [-2.7563363909969847:6.4545839747015563] none
tree_sizes=3306 3413 3388 3403 3415 3384 3400 3403 3395 3454 3407 3430 3398 3421 3442 3394 3431 3388 3401 3450 3448 3436 3468 3415 3438 3420 3416 3403 3440 3460 3386 3452 3408 3425 3412 3459 3413 3425 3405 3444 3434 3432 3392 3398 3405 3394 3390 3421 3380 3397 3432 3387 3406

Tree=0
num_leaves=31
num_cat=0
split_feature=0 7 7 0 7 0 0 7 7 6 0 7 0 6 4 6 2 5 2 6 7 0 3 2 6 4 3 0 2 7
split_gain=13202.2 2483.09 2239.41 2190.95 170.018 584.524 169.965 133.194 94.6111 87.3599 61.7949 54.7402 53.5587 45.5277 37.6784 30.1603 29.755 23.8288 22.6286 24.8913 22.1419 21.027 22.585 15.7293 13.8369 11.9887 11.9737 11.8446 15.4119 14.4561
threshold=3597.4200000000005 3.0417516246085667 3.7336784786502353 1262.3900000000001 3.3082890553525304 1168.1950000000004 1508.8950000000002 3.7336784786502353 2.8579492218081755 1.5000000000000002 2386.0150000000003 2.7012482133386251 1508.8950000000002 1.5000000000000002 1.0000000180025095e-35 1.5000000000000002 6.5000000000000009 2.5000000000000004 17.500000000000004 1.0000000180025095e-35 2.3637715686443257 347.66500000000008 2.5000000000000004 11.500000000000002 1.5000000000000002 1.0000000180025095e-35 3.5000000000000004 481.56000000000006 10.500000000000002 -0.95338694210870789
decision_type=2 2 2 2 2 2 2 2 2 2 2 2 2 2 2 2 2 2 2 2 2 2 2 2 2 2 2 2 2 2
left_child=2 8 4 -4 10 -6 -5 9 20 18 21 -12 -7 -14 -11 -8 -13 -9 19 -3 23 -1 -23 -2 -19 27 -22 29 -29 -24
right_child=1 7 3 6 5 12 15 17 -10 14 11 16 13 -15 -16 -17 -18 24 -20 -21 26 22 25 -25 -26 -27 -28 28 -30 -31
leaf_value=-3.7382875557220805 -3.7792662948463471 -1.7749869962419502 -3.6894551636459081 -2.7290938083226952 -3.7211733113303245 -3.1844133479343477 -1.7166783593580015 -1.628432259946941 -2.7942409849060477 -2.14342069083835 -3.6626804166096969 -3.6702099212458137 -2.4234302987316099 -2.9613434928423485 -2.6483113093593369 -2.0697339519190701 -3.1844133479343477 -1.7290064711563229 -1.5981388228356845 -2.179772815371861 -3.1733975526211626 -3.7113092820779765 -3.6181602883910138 -3.443708222229322 -2.0071002238376829 -3.7455686025645103 -3.4487924354507919 -3.7113457005396362 -3.7467678151705655 -3.7156219985466881
leaf_weight=3117.4702765345573 0.57309810072183587 0.84818518906831586 3.8970670849084845 0.61894594877958331 9.4675806239247304 0.75648949295282308 2.1090010106563573 4.9515675902366638 0.71064164489507664 0.91695696115493797 10.292841888964174 0.45847848057746787 0.84818518906831719 0.7335655689239502 0.61894594877958298 0.8481851890683173 1.0086526572704313 1.146196201443672 0.61894594877958287 0.68771772086620331 0.82526126503944375 153.77368238568306 4.0346106290817252 0.8940330371260643 0.73356556892395008 140.9592088535428 0.75648949295282364 45.641532741487026 93.850544974207878 66.777390696108341
leaf_count=135992 25 37 170 27 413 33 92 216 31 40 449 20 37 32 27 37 44 50 27 30 36 6708 176 39 32 6149 33 1991 4094 2913
internal_value=-3.72806 -2.21082 -3.734 -2.86935 -3.73577 -3.54633 -1.97564 -1.81673 -3.31378 -2.05875 -3.73638 -3.62195 -2.83839 -2.6729 -2.34688 -1.81794 -3.33622 -1.68597 -1.85338 -1.95623 -3.43488 -3.73675 -3.72729 -3.57479 -1.83753 -3.73429 -3.30511 -3.72672 -3.73518 -3.71007
internal_weight=3667.83 14.2816 3653.55 7.4732 3646.07 11.8058 3.57613 10.5221 3.75952 3.69075 3634.27 11.76 2.33824 1.58175 1.5359 2.95719 1.46713 6.83133 2.15485 1.5359 3.04888 3622.51 505.037 1.46713 1.87976 351.263 1.58175 210.304 139.492 70.812
internal_count=160000 623 159377 326 159051 515 156 459 164 161 158536 513 102 69 67 129 64 298 94 67 133 158023 22031 64 82 15323 69 9174 6085 3089
is_linear=0
shrinkage=1


Tree=1
num_leaves=31
num_cat=0
split_feature=0 7 0 7 0 3 3 2 2 7 4 2 2 7 2 0 0 0 7 7 7 0 0 0 0 0 0 2 7 3
split_gain=2662.83 275.035 264.208 250.23 19.7808 20.9332 15.3421 15.0497 14.6546 15.2482 23.949 14.2191 12.6282 18.7378 11.8397 15.3924 10.035 9.56426 9.14015 10.8715 9.0516 8.9824 8.79741 8.50087 33.6071 13.1901 21.31 8.31637 11.2382 11.1566
threshold=2386.0150000000003 3.3082890553525304 1168.1950000000004 2.5764539854694539 225.14500000000001 2.5000000000000004 3.5000000000000004 3.5000000000000004 22.500000000000004 2.1145661008787102 1.0000000180025095e-35 10.500000000000002 14.500000000000002 -0.45782174213432353 8.5000000000000018 122.02500000000002 554.70500000000004 1508.8950000000002 -0.11518671893993211 0.063763421681406682 -0.90173029828756424 801.11500000000012 306.10500000000008 845.17500000000007 1168.1950000000004 372.87000000000006 340.33500000000004 7.5000000000000009 0.81432266850022506 3.5000000000000004
decision_type=2 2 2 2 2 2 2 2 2 2 2 2 2 2 2 2 2 2 2 2 2 2 2 2 2 2 2 2 2 2
left_child=1 4 14 8 -1 12 17 -7 9 -2 -11 27 13 20 -3 -16 -13 -4 -14 23 -6 -22 -21 25 -25 26 -20 -9 29 -29
right_child=3 2 6 -5 5 7 -8 11 -10 10 -12 16 18 -15 15 -17 -18 -19 19 22 21 -23 -24 24 -26 -27 -28 28 -30 -31
leaf_value=-0.010383727491088415 0.024776805596117446 -0.042996545688872338 0.18498989033048419 0.31010587970640269 -0.0054293635918742245 -0.021337544801412329 0.40632753437565905 -0.0001504700084438492 0.33404209810289798 0.23216253857747451 -0.018057044652007942 -0.0027139313242754487 0.0030234198253627788 -0.0051413062165511277 0.25671490311021272 0.025792093416290258 -0.022781913473479003 0.32276723434102211 0.063523168661744442 -0.0066950386622290463 0.074092805566532804 -0.018942744261554199 0.040367060993728755 0.40069114829515096 -0.051222274458223797 -0.051222274458223832 0.35351711599759961 0.0114007919033298 -0.0070428187545758004 0.060640995084714357
leaf_weight=2748.3692725840956 8.5439351014792866 6.0784445963799971 1.6833206303417663 73.060829196125269 7.6448783669620779 137.36689468473196 4.6516973301768303 95.011312868446112 0.51888756640255529 2.6442498955875644 1.498038977384567 194.91293484717607 30.425097839906812 141.09676976129413 0.81186746060848225 6.4923788793385029 91.555704349651933 5.0041698031127453 4.3587073087692243 13.484750736504791 15.961108891293408 3.0979384910315266 37.669971099123359 0.88512528315186478 0.76866143010556698 1.816836107522249 0.74123046919703472 22.360528439283371 21.508875787258148 23.692158719524741
leaf_count=121065 347 261 38 724 331 6076 65 4162 20 98 57 8538 1321 6122 35 279 4065 53 192 594 691 133 1623 38 33 78 32 970 932 1027
internal_value=-0.000636707 -0.00718369 0.159017 0.273903 -0.00832733 -0.00163382 0.336593 -0.00685529 0.0735978 0.0629452 0.141672 -0.00242501 0.0102363 0.00212747 0.0085572 0.0514592 -0.00912768 0.288087 0.0253296 0.0366928 0.0405339 0.0589704 0.0279612 0.0888091 0.190647 0.0644598 0.105671 0.00938573 0.0227964 0.0367328
internal_weight=3703.72 3617.45 24.7219 86.2659 3592.73 844.359 11.3392 586.408 13.2051 12.6862 4.14229 449.042 257.951 167.801 13.3827 7.30425 286.469 6.68749 90.1504 59.7253 26.7039 19.059 51.1547 8.57056 1.65379 6.91677 5.09994 162.573 67.5616 46.0527
internal_count=160000 158754 731 1246 158023 36958 156 25770 522 502 155 19694 11188 7277 575 314 12603 91 3911 2590 1155 824 2217 373 71 302 224 7091 2929 1997
is_linear=0
shrinkage=0.05


Tree=2
num_leaves=31
num_cat=0
split_feature=0 7 0 7 0 3 4 2 0 2 7 7 7 2 7 0 5 2 2 2 0 2 0 7 7 0 2 2 3 2
split_gain=1970.31 217.633 159.169 145.394 18.1625 17.9109 10.5959 10.4748 10.1212 12.8049 11.7019 27.2237 11.2295 14.3955 10.6872 9.88132 9.82184 10.1341 10.1835 10.4798 10.093 13.3108 9.24711 8.03983 7.75036 37.1893 7.44459 7.20799 7.0084 10.2923
threshold=2386.0150000000003 3.3082890553525304 1168.1950000000004 2.5764539854694539 347.66500000000008 2.5000000000000004 1.0000000180025095e-35 8.5000000000000018 481.56000000000006 10.500000000000002 0.68089020523615573 0.61992212768006938 -0.95338694210870789 17.500000000000004 2.8579492218081755 122.02500000000002 2.5000000000000004 3.5000000000000004 16.500000000000004 14.500000000000002 3597.4200000000005 10.500000000000002 413.45000000000005 -1.0913075992268135 2.5764539854694539 1262.3900000000001 18.500000000000004 1.0000000180025095e-35 3.5000000000000004 4.5000000000000009
decision_type=2 2 2 2 2 2 2 2 2 2 2 2 2 2 2 2 2 2 2 2 2 2 2 2 2 2 2 2 2 2
left_child=1 4 7 16 27 -6 8 -3 12 10 11 -10 13 23 -14 -9 17 -2 19 20 21 -19 -16 -7 -8 -26 28 -1 -4 -30
right_child=3 2 26 -5 5 6 24 15 9 -11 -12 -13 14 -15 22 -17 -18 18 -20 -21 -22 -23 -24 -25 25 -27 -28 -29 29 -31
leaf_value=-0.019693280019272685 -0.0065559194204364377 -0.042600949605465288 0.22985781330000443 0.23659912037779054 0.014736558614564729 -0.025680518461693815 -0.018977846687415999 0.18996454017121472 0.027174355149666252 -0.017456518093234643 -0.017360049439150118 0.36884269799102087 0.0089302489778232894 0.24204381539715622 0.02883619016397479 0.023892783045329463 -0.008375047382868173 0.15559956630479088 0.042496448024773884 0.30238804444414952 0.26672596165324836 -0.051399193658959619 0.30935091893536354 0.13283860308990822 -0.0052339117885470661 0.38493511230621019 0.18264640934184462 -0.0088554294889194637 0.23018207276347682 0.37410568150327195
leaf_weight=161.99074181355536 2.2321455664932719 5.8343441803008336 6.0762206241488439 90.412272833287716 158.38242615014315 1.9476796779781578 130.49348906800151 1.0350342541933057 28.689065322279934 90.502823397517204 17.719870947301388 0.59510478936135669 66.500788625329733 1.1929847728461025 0.62461186945438274 6.6537165157496929 3.4829906225204459 2.173961533233522 3.1871853247284889 0.98886325955390919 0.94178809225559224 1.2082539424300192 0.55468771606683731 1.3572960477322333 5.4431456513702861 0.68792048655450333 3.5326643846929064 2897.9196033831686 2.248962514102459 2.7748731523752213
leaf_count=7212 88 261 65 724 6708 76 5873 35 1204 4094 762 25 2862 47 27 279 131 83 109 35 30 46 24 53 245 31 40 128780 22 29
internal_value=-0.000657296 -0.00688601 0.131579 0.213228 -0.0079797 0.000808372 -0.0055616 0.00791587 0.00149814 -0.00646059 0.0147113 0.0341176 0.0166604 0.0931619 0.0115761 0.0462488 0.0645805 0.0882572 0.113156 0.155544 0.121962 0.0816519 0.160777 0.0394205 -0.0163965 0.038544 0.245864 -0.00942918 0.265984 0.309677
internal_weight=3697.39 3592.76 28.1558 104.627 3564.6 504.692 346.309 13.5231 209.685 137.507 47.004 29.2842 72.178 4.49796 67.6801 7.68875 14.2152 10.7322 8.50005 5.31287 4.324 3.38222 1.1793 3.30498 136.625 6.13107 14.6327 3059.91 11.1001 5.02384
internal_count=160000 158754 731 1246 158023 22031 15323 575 9174 6085 1991 1229 3089 176 2913 314 522 391 303 194 159 129 51 129 6149 276 156 135992 116 51
is_linear=0
shrinkage=0.05


Tree=3
num_leaves=31
num_cat=0
split_feature=7 0 0 0 6 0 3 2 2 2 2 2 7 7 2 0 7 0 5 7 0 2 2 2 3 7 0 2 5 5
split_gain=1558.78 289.667 91.4001 22.4293 19.916 15.0294 17.6464 13.0856 12.0622 11.3491 10.7702 10.6704 16.3557 9.26763 8.54718 8.33555 8.2803 10.222 25.6052 23.0868 9.95837 11.6618 7.89524 7.92316 8.35127 7.70686 9.40447 11.1874 7.85698 12.8231
threshold=3.0417516246085667 1168.1950000000004 2386.0150000000003 3597.4200000000005 1.0000000180025095e-35 225.14500000000001 2.5000000000000004 3.5000000000000004 10.500000000000002 3.5000000000000004 10.500000000000002 14.500000000000002 -0.45782174213432353 1.0421435725207824 14.500000000000002 554.70500000000004 0.14624372096671392 1379.1900000000003 2.5000000000000004 0.58086483871566874 1684.2950000000003 6.5000000000000009 16.500000000000004 19.500000000000004 3.5000000000000004 -0.77152786330709211 577.27500000000009 1.5000000000000002 2.5000000000000004 1.5000000000000002
decision_type=2 2 2 2 2 2 2 2 2 2 2 2 2 2 2 2 2 2 2 2 2 2 2 2 2 2 2 2 2 2
left_child=2 -2 5 9 -5 -1 11 -8 16 -4 -11 12 25 -14 -12 -10 -9 -18 -19 -20 -21 -22 -16 -24 -25 -7 27 -27 29 -29
right_child=1 -3 3 4 -6 6 7 8 15 10 14 -13 13 -15 22 -17 17 18 19 20 21 -23 23 24 -26 26 -28 28 -30 -31
leaf_value=-0.0095864638147226053 0.0087183004244932114 0.19643503830069126 -0.03409908643901869 0.28626901651994813 0.11096029865280324 0.0063375243536982475 -0.020660561897887654 0.020514782924529702 -0.0031753707061877635 0.14193085492554741 -0.032458089216386647 0.022591167984542374 0.0021689522085548345 -0.026993621278806303 0.17337299883959681 -0.021822295916166457 -0.0078729885993066469 9.2863141699380292e-05 -0.05125351444208899 0.46406630258946041 0.38878546228398014 0.043354887255400515 -0.051734137986903662 0.15602334470097184 -0.051702570269547589 0.25116318482192651 0.014875279770913722 0.046341209010720079 -0.022014874914177675 0.19534406669275214
leaf_weight=2692.4034739807248 25.018374752253294 115.09089863114059 2.8777861110866079 2.2084351200610399 6.0810551624745131 12.15549147501588 131.22367017157376 73.87484941445291 192.64220204949379 4.127017615363 2.5782043430954218 92.083851151168346 102.10634428448975 37.157053343951702 1.5524264741688965 86.997649544849992 79.619694672524929 6.8182310182601196 0.6663286238908771 0.58209506049752213 0.45455620437860489 0.52831970900297165 1.4635527245700362 1.683349156752229 0.67902434431016434 0.9918354544788589 6.8011841736733905 4.0966437552124244 1.7071652635931966 2.2298876401036978
leaf_count=120862 1076 796 108 45 119 512 6009 3165 8487 127 87 3875 4440 1605 44 4014 3475 291 28 24 20 22 50 53 23 40 278 166 69 90
internal_value=-0.000660234 0.162916 -0.00711908 0.0916899 0.157665 -0.00777079 -0.00190038 -0.00679522 -0.0026805 0.0551357 0.0763876 0.00892269 0.00139695 -0.00561195 0.0423907 -0.00897654 0.00815117 -0.00214959 0.0482061 0.195227 0.300172 0.203108 0.0782707 0.0396816 0.096316 0.0362792 0.0592756 0.0927334 0.0731738 0.0988597
internal_weight=3688.5 140.109 3548.39 23.2509 8.28949 3525.14 832.737 573.408 442.184 14.9614 12.0836 259.329 167.246 139.263 7.95656 279.64 162.544 88.6692 9.04953 2.2313 1.56497 0.982876 5.37835 3.82593 2.36237 27.9822 15.8267 9.02553 8.0337 6.32653
internal_count=160000 1872 158128 656 164 157472 36610 25535 19526 492 384 11075 7200 6045 257 12501 7025 3860 385 94 66 42 170 126 76 1155 643 365 325 256
is_linear=0
shrinkage=0.05


Tree=4
num_leaves=31
num_cat=0
split_feature=7 0 0 7 6 0 3 2 2 2 7 7 0 2 7 3 2 7 0 2 0 7 2 7 7 0 0 7 6 6
split_gain=1284.8 213.16 76.1644 17.4859 19.0799 13.764 15.9034 12.1473 10.875 9.35009 14.1962 8.6207 7.78019 7.54413 8.84379 8.79001 11.238 9.08436 12.1457 8.66484 7.61562 13.0189 12.2117 13.4037 16.4381 7.50381 16.9709 13.0291 12.3974 13.6229
threshold=3.0417516246085667 1168.1950000000004 2386.0150000000003 2.5764539854694539 1.5000000000000002 225.14500000000001 2.5000000000000004 3.5000000000000004 10.500000000000002 14.500000000000002 -0.45782174213432353 1.0421435725207824 554.70500000000004 7.5000000000000009 0.81432266850022506 3.5000000000000004 9.5000000000000018 -0.95338694210870789 628.25000000000011 9.5000000000000018 760.00500000000011 -0.30957584143135314 8.5000000000000018 0.12106612065295225 0.40971183904842673 497.12000000000006 722.96000000000015 0.63904354221136783 1.0000000180025095e-35 1.5000000000000002
decision_type=2 2 2 2 2 2 2 2 2 2 2 2 2 2 2 2 2 2 2 2 2 2 2 2 2 2 2 2 2 2
left_child=2 -2 5 -4 -5 -1 9 -8 13 10 -7 25 -10 -9 15 19 17 -17 -19 -15 -20 -22 -23 -24 -25 -12 -27 -28 -29 -30
right_child=1 -3 3 4 -6 6 7 8 12 -11 11 -13 -14 14 -16 16 -18 18 20 -21 21 22 23 24 -26 26 27 28 29 -31
leaf_value=-0.0091930720991815294 0.0082121652990998478 0.16722788681456 0.048907487891130766 0.21123437605480563 0.065032756087990445 0.033097016591647883 -0.020029292756656391 -0.0015380332232593067 -0.0030259923585351078 0.020993714598330371 -0.0079942127595366806 -0.026329967947670126 -0.021179825146736327 -0.012278077981798349 -0.0073548840276583668 0.23044369924009289 0.0035863770762196122 0.033901224408830428 0.22214294184971484 0.052699186350732313 -0.051362071202211729 0.041656621156283963 0.41347000311261228 -0.051314247187393205 0.33287295621571317 0.074480201030476548 -0.016814867926391287 -0.051236741907552168 0.27895827146728708 0.054897369534360502
leaf_weight=2667.8765993379056 25.22677831351757 128.05108102038503 16.377803150564436 4.3288545496761781 4.6060732081532478 29.017507826909423 128.65788300894201 94.623915871605277 192.05980787798762 94.082563187927008 65.972049470990896 36.213217640295625 85.201240681111813 15.392427112907173 20.527751442044973 0.88705749437213199 8.195045495405795 10.564334275200965 1.4625402614474285 7.6959958579391232 1.1875255927443502 1.612720899283886 0.64539434388279926 0.59868590347468831 0.52047174051403999 10.34069051966071 21.788470912724737 1.2719755992293347 1.0599796660244465 1.8844082951545715
leaf_count=120862 1076 796 522 64 70 1155 6009 4126 8487 3875 2897 1605 4014 646 902 34 327 431 57 324 46 63 25 24 20 439 925 54 45 80
internal_value=-0.000654689 0.141057 -0.00681735 0.0796021 0.135866 -0.00744247 -0.00182539 -0.00651097 -0.00256868 0.00837983 0.00129682 -0.00536425 -0.00860459 0.00764109 0.0201763 0.0317663 0.0518978 0.074549 0.0662142 0.0093806 0.12285 0.0910375 0.141108 0.232003 0.127355 0.00205614 0.0202989 -0.00124604 0.0792074 0.135559
internal_weight=3677.93 153.278 3524.65 25.3127 8.93493 3499.34 831.464 569.833 441.175 261.631 167.548 138.531 277.261 163.914 69.29 48.7622 25.6738 17.4787 16.5917 23.0884 6.02734 4.5648 3.37727 1.76455 1.11916 102.318 36.3455 26.0048 4.21636 2.94439
internal_count=160000 1872 158128 656 134 157472 36610 25535 19526 11075 7200 6045 12501 7025 2899 1997 1027 700 666 970 235 178 132 69 44 4440 1543 1104 179 125
is_linear=0
shrinkage=0.05


Tree=5
num_leaves=31
num_cat=0
split_feature=7 0 0 7 0 3 4 6 2 0 3 0 7 6 7 7 0 2 2 7 2 2 0 7 2 0 0 0 0 3
split_gain=1082.26 164.93 64.5948 14.1707 12.7163 13.5046 9.35499 9.34744 11.7591 10.2734 10.0573 7.61553 7.00081 6.84908 6.8385 11.7089 7.98229 8.70212 11.3713 12.0874 7.25911 11.9355 19.1921 13.0647 27.7965 10.2729 23.0198 14.6087 20.233 9.56364
threshold=3.0417516246085667 1168.1950000000004 2386.0150000000003 2.1145661008787102 347.66500000000008 2.5000000000000004 1.0000000180025095e-35 1.5000000000000002 7.5000000000000009 3597.4200000000005 3.5000000000000004 372.87000000000006 0.56315333487853836 1.0000000180025095e-35 0.13297955693783545 -0.20367499607050613 467.36000000000007 17.500000000000004 20.500000000000004 -0.73853802691074877 18.500000000000004 9.5000000000000018 690.79000000000008 0.031098276439074313 6.5000000000000009 1168.1950000000004 1013.3400000000001 600.0200000000001 439.27000000000004 3.5000000000000004
decision_type=2 2 2 2 2 2 2 2 2 2 2 2 2 2 2 2 2 2 2 2 2 2 2 2 2 2 2 2 2 2
left_child=2 -2 4 12 -1 -6 11 8 9 -5 -10 13 -4 -7 15 16 17 -13 19 -19 21 22 -17 24 -24 26 27 28 -22 -25
right_child=1 -3 3 7 5 6 -8 -9 10 -11 -12 14 -14 -15 -16 20 -18 18 -20 -21 25 -23 23 29 -26 -27 -28 -29 -30 -31
leaf_value=-0.0083626638873979531 0.0077392635863685116 0.14626257978228954 0.18894147585419596 -0.052433763719293494 0.012152893852789353 -0.014517877423331252 -0.015975204586127997 0.062287251586148978 0.11962448765866339 0.15129178572344293 0.25511201370165881 0.0085145866945066997 0.016361095725370891 0.05265994094385093 -0.010003718666246659 -0.017618420787746194 -0.012509605632492406 0.27126941570361013 -0.051375284511492383 0.016138997373642505 0.01831177244748956 -0.0024072599337866228 0.41571125430200279 0.13542438111896077 0.014975438934456159 -0.051085473837997636 0.44979613396292395 -0.019861685299758347 0.40121147794562168 0.42252013751245032
leaf_weight=2977.6217871978879 25.424586633220315 138.77687423862517 0.62323600053787487 1.2617789804935455 161.55475823022425 5.4459152705967453 129.47302350215614 8.1898260358721018 3.1565057132393122 1.2143993731588125 2.419651236385107 7.5212506670504791 10.286293011158703 12.509983506053684 108.06067596934736 2.9694014918059173 45.225750051438808 1.2392844818532467 0.76389098539948452 0.74232405424118053 0.71912642754614331 13.333998989313839 0.53534219041466791 0.53560483828186967 2.2575288452208042 0.93584988266229618 0.49911993741989125 1.6013431325554845 0.66317232325673103 0.632774967700243
leaf_count=135705 1076 796 20 33 6618 231 6072 155 50 20 37 304 341 526 4824 121 1999 45 30 32 31 608 22 22 84 45 24 77 30 22
internal_value=-0.000643919 0.124814 -0.00652639 0.0702946 -0.00712665 0.000275263 -0.00544141 0.0998985 0.138152 0.04748 0.178416 0.00117301 0.0262202 0.0322853 -0.00179479 0.00926918 -0.00347436 0.0363265 0.112517 0.175696 0.037919 0.0252575 0.0784823 0.15052 0.0917892 0.095987 0.135507 0.0829307 0.202012 0.290911
internal_weight=3666.2 164.201 3501.99 27.1517 3474.84 497.22 335.665 16.2422 8.05234 2.47618 5.57616 206.192 10.9095 17.9559 188.236 80.1758 55.4925 10.2668 2.7455 1.98161 24.6833 20.2647 6.93065 3.96125 2.79287 4.41861 3.48276 2.98364 1.3823 1.16838
internal_count=160000 1872 158128 656 157472 21767 15149 295 140 53 87 9077 361 757 8320 3496 2410 411 107 77 1086 879 271 150 106 207 162 138 61 44
is_linear=0
shrinkage=0.05


Tree=6
num_leaves=31
num_cat=0
split_feature=7 0 0 0 2 7 7 2 2 2 7 0 0 7 7 0 0 3 3 5 0 7 7 7 3 0 0 7 7 0
split_gain=925.926 132.717 55.1812 11.7809 13.8462 13.5571 10.7561 9.19798 7.79878 11.1968 18.6544 10.8018 16.032 17.2572 28.8731 21.6581 16.4399 11.1536 10.7681 9.59634 7.92587 25.5599 21.2915 15.1242 7.34988 7.09274 9.19633 9.88969 7.17655 13.1515
threshold=3.0417516246085667 1262.3900000000001 2386.0150000000003 225.14500000000001 3.5000000000000004 0.96348318518084886 2.1145661008787102 10.500000000000002 18.500000000000004 20.500000000000004 0.47675440610107728 340.33500000000004 1168.1950000000004 1.0000000180025095e-35 0.13297955693783545 554.70500000000004 1013.3400000000001 3.5000000000000004 2.5000000000000004 1.5000000000000002 554.70500000000004 -0.25985267080954938 -0.1628227523491044 -0.79598472314115032 2.5000000000000004 392.34000000000009 382.30500000000006 0.2207537986220742 0.49329154287413374 1684.2950000000003
decision_type=2 2 2 2 2 2 2 2 2 2 2 2 2 2 2 2 2 2 2 2 2 2 2 2 2 2 2 2 2 2
left_child=2 -2 3 -1 -5 7 -4 -6 -9 10 11 24 13 17 15 -15 18 -13 19 -16 21 23 -22 -19 -10 26 -11 -28 -27 -30
right_child=1 -3 6 4 5 -7 -8 8 9 25 -12 12 -14 14 16 -17 -18 20 -20 -21 22 -23 -24 -25 -26 28 27 -29 29 -31
leaf_value=-0.0084633467531417938 0.010907802015557638 0.13108953653003627 0.024236214957064302 -0.014615343856714556 0.014730998947291525 -0.010438897059112884 0.086886771977128366 -0.0058602549170884144 0.06111447440051021 0.0086796565128830286 -0.034954494510329441 0.018475454939899823 -0.051161950902036957 0.4632040770964575 0.28327194680101092 0.09944750113932764 0.35638484241648838 0.11949782262013263 -0.011916962226163169 0.022947287846370918 -0.0076106137460375941 -0.051339485031534363 0.35451862877105605 0.45495800539224973 -0.01035010419830849 -0.028755812955942157 0.02000229126111271 0.30055810834590485 0.0047144710249962139 0.23249723543962042
leaf_weight=2623.5104552581906 27.260525735095143 146.00472451746464 11.187180485576393 164.35507773607969 182.58429145626724 173.02871709130704 17.674367714673281 186.37217150814831 5.3401632532477405 35.904421934857965 9.2321904674172384 9.3100570943206602 2.5866506416350594 1.0686719622462977 0.74709064140915893 0.66311281733214844 0.49064311012625683 0.58456921949982654 2.5473582278937101 0.67283131927251816 2.3009090423583989 0.74510288797318835 0.49284202605485905 0.79014837183058273 11.026993598788975 28.959951292723417 0.701855108141898 0.56857419200241566 6.2599036507308474 0.70505592413246621
leaf_count=120862 1103 769 361 7702 7675 7702 295 8208 226 1574 405 379 118 40 29 27 21 21 114 26 112 30 21 33 498 1285 30 25 277 32
internal_value=-0.000630448 0.112181 -0.00624653 -0.00682224 -0.00162265 0.00159486 0.0626025 0.00583854 0.000568262 0.010413 0.0290131 0.0440145 0.0661085 0.0809683 0.150658 0.323919 0.0833506 0.0506414 0.0495838 0.159917 0.111588 0.18449 0.0562721 0.312311 0.0129669 -0.00195301 0.0133576 0.145564 -0.0177963 0.0277727
internal_weight=3653.68 173.265 3480.41 3451.55 828.039 663.684 28.8615 490.656 308.071 121.699 48.5993 39.3671 23 20.4133 6.18971 1.73178 4.45792 14.2236 3.96728 1.41992 4.91357 2.11982 2.79375 1.37472 16.3672 73.0998 37.1749 1.27043 35.9249 6.96496
internal_count=160000 1872 158128 157472 36610 28908 656 21206 13531 5323 2100 1695 971 853 257 67 190 596 169 55 217 84 133 54 724 3223 1629 55 1594 309
is_linear=0
shrinkage=0.05


Tree=7
num_leaves=31
num_cat=0
split_feature=7 0 0 0 3 0 4 2 0 2 7 7 2 6 7 7 2 6 2 0 0 5 7 7 0 2 2 7 2 0
split_gain=801.646 109.882 47.6305 10.7533 12.0612 9.30386 8.03697 7.79084 6.86037 8.50775 8.48896 15.6577 12.5805 9.47268 7.58596 7.40314 6.59005 5.9409 5.83465 8.65105 5.62766 8.50989 5.52022 5.46999 12.9605 19.9723 16.4797 6.34697 9.94985 7.66243
threshold=3.0417516246085667 1168.1950000000004 2386.0150000000003 347.66500000000008 2.5000000000000004 3597.4200000000005 1.0000000180025095e-35 2.5000000000000004 481.56000000000006 10.500000000000002 0.68089020523615573 0.51112953376574799 8.5000000000000018 1.5000000000000002 -0.95338694210870789 -1.0095477137304953 1.0000000180025095e-35 1.0000000180025095e-35 18.500000000000004 439.27000000000004 1972.7500000000002 2.5000000000000004 1.0421435725207824 2.5764539854694539 1013.3400000000001 13.500000000000002 3.5000000000000004 1.070576565114272 16.500000000000004 1013.3400000000001
decision_type=2 2 2 2 2 2 2 2 2 2 2 2 2 2 2 2 2 2 2 2 2 2 2 2 2 2 2 2 2 2
left_child=2 -2 3 16 23 7 8 -4 14 10 11 -10 13 -13 15 18 -1 -7 19 -6 -8 -22 -23 27 26 -26 -25 -5 -29 -30
right_child=1 -3 5 4 6 17 20 -9 9 -11 -12 12 -14 -15 -16 -17 -18 -19 -20 -21 21 22 -24 24 25 -27 -28 28 29 -31
leaf_value=-0.017784935803634643 0.0066791643777046718 0.11798531517032447 -0.051652821758317792 0.015010526042571769 -0.051541805272532652 0.14272106631242376 -0.016913270391678146 0.046350289840503572 0.01541519038114145 -0.015521212958218435 -0.018302202088724503 -0.0515978249783072 0.27495336676276277 0.2078403704931763 0.0086512637891332199 0.19106204841390917 -0.0071272665606760578 0.066804051072579237 0.1472321421627954 0.11756398446370404 -0.008703133197968475 0.038379583829396262 0.25208476497459426 0.24792978691826706 -0.051170523808303087 0.3764950833388005 -0.022843940300173879 -0.027712506208068297 0.051050833474134187 -0.051351365202264271
leaf_weight=153.03194193169475 25.879211580380797 154.83627221733332 2.3189240284264114 123.59414755553007 2.0966939963400368 3.7570396736264255 122.89357444830239 16.158047147095203 29.924111546948552 84.323719382286072 16.720076529309154 0.89925692602991991 1.0714339092373846 0.5779770165681839 68.437688795849681 1.0295285414904345 2779.2821703404188 8.2046788074076158 1.0035738907754419 1.1830237805843351 2.3574228826910248 0.55805451609194301 0.65904709883034229 0.6686796247959127 0.44703258574008919 0.70123307220637798 3.5196864902973175 23.425842981785536 8.7888740357011539 2.3061185516417018
leaf_count=7197 1076 796 80 4926 74 45 5909 412 1142 4045 738 32 35 20 2889 32 128508 119 27 43 111 25 27 30 20 28 148 1033 343 90
internal_value=-0.000615819 0.102046 -0.00597792 -0.0065306 0.00026879 0.0562924 -0.00518124 0.0340506 0.000879711 -0.00588102 0.0106437 0.0255478 0.144515 0.049909 0.0131192 0.0706735 -0.00768347 0.0906487 0.041737 0.00945618 -0.0151144 0.0467298 0.154099 0.0113966 0.0611843 0.21 0.0203855 0.00971623 -0.00923882 0.0297663
internal_weight=3640.66 180.715 3459.94 3429.5 497.187 30.4387 333.735 18.477 207.267 133.517 49.1929 32.4728 2.54867 1.47723 73.7505 5.31282 2932.31 11.9617 4.28329 3.27972 126.468 3.57452 1.2171 163.452 5.33663 1.14827 4.18837 158.115 34.5208 11.095
internal_count=160000 1872 158128 157472 21767 656 15149 492 9077 6012 1967 1229 87 52 3065 176 135705 164 144 117 6072 163 52 6618 226 48 178 6392 1466 433
is_linear=0
shrinkage=0.05


Tree=8
num_leaves=31
num_cat=0
split_feature=7 0 0 0 2 7 7 7 5 3 7 7 0 7 6 0 7 2 7 0 5 2 3 6 0 2 4 7 2 7
split_gain=700.096 92.9379 41.3288 10.1194 13.007 11.6249 7.54097 7.475 9.91024 7.44932 6.96461 10.5887 6.74027 6.55297 6.37463 6.33477 25.7398 6.83627 11.1472 7.32561 8.06353 6.15143 8.44225 22.3227 5.64506 5.62554 5.92563 6.8184 5.53178 5.47247
threshold=3.0417516246085667 1262.3900000000001 2386.0150000000003 194.52500000000003 3.5000000000000004 0.88880473902005164 2.7012482133386251 2.5764539854694539 2.5000000000000004 4.5000000000000009 -0.40653075571284431 -0.65009051008275798 247.86500000000004 0.70203475010381389 1.0000000180025095e-35 1168.1950000000004 2.8579492218081755 5.5000000000000009 1.6276912145620079 1262.3900000000001 2.5000000000000004 18.500000000000004 2.5000000000000004 1.5000000000000002 218.55000000000004 22.500000000000004 1.0000000180025095e-35 2.1145661008787102 10.500000000000002 1.1001328397053671
decision_type=2 2 2 2 2 2 2 2 2 2 2 2 2 2 2 2 2 2 2 2 2 2 2 2 2 2 2 2 2 2
left_child=2 -2 3 -1 6 9 -5 25 -9 14 11 -11 24 -14 -6 -7 17 18 -17 29 -21 22 23 -22 -12 26 27 -4 -24 -19
right_child=1 -3 7 4 5 15 -8 8 -10 10 12 -13 13 -15 -16 16 -18 19 -20 20 21 -23 28 -25 -26 -27 -28 -29 -30 -31
leaf_value=-0.0079504677823061289 0.0094488655805177735 0.10842065812547873 0.01394027856353802 -0.014891679768895737 -0.0035031437612943134 -0.012373188410195253 0.064771832598050902 0.06278968293444448 0.18922012714364123 0.018921804479278114 0.035428329284913455 0.28942482654765872 -0.033606899993528484 0.1721727219038427 0.0078514540455927352 0.0056534640700629801 0.27503745890228726 0.22235416080221176 0.22059474768821685 -0.035580555340350116 0.4258645073141254 -0.051244032070615342 0.11617011005780174 -0.051214483917010112 0.26898703249452183 0.14745431008322016 -0.016823655056322911 0.087800151591133649 -0.051047393892082495 0.031819081042176837
leaf_weight=2450.971425479278 27.87903044000268 158.989621412009 7.5903988238424152 186.42789650708437 184.41341375559568 180.46585415676236 3.018731413409113 10.467286162078377 1.8193668983876712 0.71337083354592323 0.57772358134388813 0.73402020893990971 2.8476327154785399 0.44770175591111172 374.89719360508025 1.7548852879554098 0.91845243610441585 0.54829149879515426 0.91914336755871762 12.840631870552899 0.52395506203174536 1.2006623018532989 0.89510145969688926 0.46085602976381779 0.46852138265967369 0.9974876344203939 5.7121731527149668 5.3110264725983143 1.1053349152207372 1.2052581105381248
leaf_count=114669 1103 769 224 8915 8051 8177 138 116 18 32 27 33 128 20 16263 73 34 24 37 590 22 52 35 20 21 20 180 98 55 56
internal_value=-0.000597911 0.093655 -0.00571757 -0.00624773 -0.0018886 0.00100605 -0.0136223 0.0509316 0.0815111 0.0046917 0.0611193 0.156103 0.0294538 -0.00564983 0.00410767 -0.00926204 0.0158337 0.00473717 0.0795352 -0.00591305 -0.0159347 0.0443307 0.0827707 0.202609 0.140019 0.0317731 0.0255739 0.0443456 0.0237746 0.0913947
internal_weight=3627.12 186.869 3440.25 3408.36 957.385 767.938 189.447 31.8977 12.2867 565.1 5.78897 1.44739 4.34158 3.29533 559.311 202.838 22.3726 21.4541 2.67403 18.7801 17.0265 4.18591 2.98525 0.984811 1.04624 19.6111 18.6136 12.9014 2.00044 1.75355
internal_count=160000 1872 158128 157472 42803 33750 9053 656 134 24575 261 65 196 148 24314 9175 998 964 110 854 774 184 132 42 48 522 502 322 90 80
is_linear=0
shrinkage=0.05


Tree=9
num_leaves=31
num_cat=0
split_feature=7 0 0 3 0 3 2 7 2 2 2 0 0 5 0 5 7 7 0 2 0 7 2 7 6 0 0 7 4 2
split_gain=615.901 79.6097 36.0171 9.28267 15.2583 13.2799 12.3161 10.6491 8.24102 24.8181 14.2364 10.6764 15.0079 21.0275 14.6009 31.192 20.8214 11.2196 16.4689 10.8114 10.458 8.90559 7.9682 7.64653 8.75479 9.93069 7.17766 11.2124 7.12103 7.10052
threshold=3.0417516246085667 1262.3900000000001 2386.0150000000003 2.5000000000000004 318.81500000000005 3.5000000000000004 3.5000000000000004 0.49329154287413374 9.5000000000000018 6.5000000000000009 14.500000000000002 35.685000000000009 228.46500000000003 1.0000000180025095e-35 32.265000000000008 1.5000000000000002 -0.322207961708528 -0.45782174213432353 252.15500000000003 7.5000000000000009 82.915000000000006 -1.4080596417662739 21.500000000000004 0.28926391094792753 1.0000000180025095e-35 33.225000000000001 83.915000000000006 -0.30957584143135314 1.0000000180025095e-35 13.500000000000002
decision_type=2 2 2 2 2 2 2 2 2 2 2 2 2 2 2 2 2 2 2 2 2 2 2 2 2 2 2 2 2 2
left_child=2 -2 3 4 7 6 -5 8 9 -1 23 14 21 19 -11 16 -16 18 -15 -14 22 -13 -12 -10 -25 -26 27 -22 -9 -8
right_child=1 -3 -4 5 -6 -7 29 28 10 11 20 12 13 17 15 -17 -18 -19 -20 -21 26 -23 -24 24 25 -27 -28 -29 -30 -31
leaf_value=-0.0052178941964998605 0.0088948613008493806 0.099951907069182555 0.04632649512921086 -0.02331286713327279 0.011099764691985469 -0.0042622696802660171 -0.0047536503182233668 -0.009546265666373413 -0.020979168191165805 0.040098123411192108 -0.0013059924095109258 0.15804552303775166 0.43790570656354871 0.35594059653255994 0.17313765430459691 0.0085005837758016546 0.55934089733622516 -0.0022706482530973674 0.011327533302699314 0.15398084250343377 0.28526117647506938 0.0040751652999067344 -0.029048859440658895 -0.051112741788733221 0.28526117647506927 0.040685682965536332 0.011750876738038226 -0.051109390036348429 -0.033049521510163014 -0.013695275540183616
leaf_weight=203.73120953142643 28.128058502450585 163.70668193697929 33.239585774019361 190.80869734846056 182.62738082930446 1283.6126755848527 435.51936426758766 102.23926146514714 152.63685134425759 20.831617562100295 108.42633972689509 0.95622540824115176 0.51111135073006042 0.61370173841714837 0.89187353476881981 1.6775716487318275 0.5733472723513835 4.0899962726980448 0.79682981967926025 0.97463937290012836 0.59458235651254654 52.548578519374132 33.997369742020965 2.5979752764105779 0.44593676738440979 5.9910123459994793 100.17136512510478 0.42470168322324642 47.06229879334569 452.91171176172793
leaf_count=9582 1103 769 656 9151 7382 60100 20158 4792 7152 981 5106 45 22 23 42 79 27 183 30 42 28 2470 1601 122 21 280 4603 20 2215 21215
internal_value=-0.000579268 0.0866005 -0.00546721 -0.00597532 -0.00200261 -0.00769936 -0.0117873 -0.00484183 -0.00223398 0.00422968 -0.00683026 0.0270173 0.0158262 0.0847483 0.055254 0.155713 0.324261 0.0396654 0.161264 0.251653 0.000803802 0.00682689 -0.00792838 -0.0183336 0.0263607 0.0576293 0.0130942 0.145107 -0.0169549 -0.00931199
internal_weight=3613.34 191.835 3421.5 3388.26 1025.41 2362.85 1079.24 842.784 693.483 288.197 405.286 84.4655 60.4911 6.98628 23.9744 3.14279 1.46522 5.50053 1.41053 1.48575 243.614 53.5048 142.424 161.672 9.03492 6.43695 101.191 1.01928 149.302 888.431
internal_count=160000 1872 158128 157472 46848 110624 50524 39466 32459 13526 18933 3944 2815 300 1129 148 69 236 53 64 11358 2515 6707 7575 423 301 4651 48 7007 41373
is_linear=0
shrinkage=0.05


Tree=10
num_leaves=31
num_cat=0
split_feature=7 0 0 2 0 0 7 3 5 7 2 7 5 3 0 0 6 0 3 0 7 6 2 2 7 0 2 7 3 2
split_gain=544.944 69.4423 31.5295 9.0575 9.83357 11.0483 19.1155 34.4451 47.8317 8.73108 8.73102 10.5587 8.07962 9.84267 10.0083 9.39565 14.5289 6.63135 7.91037 6.0676 6.26733 5.84434 5.8642 6.1016 7.97137 7.73452 6.18434 5.39551 9.69704 5.19887
threshold=3.0417516246085667 1168.1950000000004 2386.0150000000003 1.0000000180025095e-35 181.87000000000003 184.48500000000004 -0.35635876298715596 3.5000000000000004 1.5000000000000002 1.1294453031657083 3.5000000000000004 0.93909934390287131 1.0000000180025095e-35 3.5000000000000004 225.14500000000001 340.33500000000004 1.5000000000000002 1508.8950000000002 3.5000000000000004 3597.4200000000005 0.54472846490450177 1.0000000180025095e-35 8.5000000000000018 6.5000000000000009 -0.87401871261030395 273.95500000000004 7.5000000000000009 1.0145938938984442 2.5000000000000004 2.5000000000000004
decision_type=2 2 2 2 2 2 2 2 2 2 2 2 2 2 2 2 2 2 2 2 2 2 2 2 2 2 2 2 2 2
left_child=2 -2 3 -1 -5 6 7 -6 -9 10 11 -7 -13 27 -15 -16 -17 18 -3 20 -4 -12 23 -23 25 -25 -27 28 -14 -22
right_child=1 17 19 4 5 9 -8 8 -10 -11 21 12 13 14 15 16 -18 -19 -20 -21 29 22 -24 24 -26 26 -28 -29 -30 -31
leaf_value=-0.016917902627913799 0.0052859580651985387 0.01608686184046302 0.17749565859133121 -0.0069420270571307801 0.038570102928371187 -0.0153183414873316 0.0029050367527249103 0.65815976616741034 0.033331567766887851 -0.011077374754976804 -0.0036532490944131283 -0.051069999448269565 0.26227057021507494 -0.051100034446255764 0.339039463713942 -0.051021558966690875 0.29688554166697911 0.094966126585929789 0.10016198242258896 0.067634055588174299 -0.05168090638226952 0.0065927052803741787 0.0029010184526530236 0.22885009067758763 0.023868735185558532 -0.015115699626684728 0.13593533072603667 -0.051064002484930461 -0.051022796770851045 0.029091871582882428
leaf_weight=171.27741406857967 26.501375157386065 6.0097474567592126 0.65210469812155025 2230.5149829909205 2.7878953143954268 110.43706149607897 8.3322795424610359 0.63446011394262292 0.59216277301311493 190.94351812265813 212.38662851043046 1.4902702514082182 0.4785092826932672 0.48445934057235751 0.7690443880856036 0.62783472426235654 0.57484282925724983 158.07329067960382 5.2345214933156967 14.027201754972337 2.245872342959049 70.918253403156996 315.95739296637475 0.89250457845628206 44.56877757795155 1.3781758341938257 1.3330540787428617 1.4425027351826427 0.51047783531248569 17.632675252854824
leaf_count=8346 1076 59 15 105724 132 5351 395 30 28 8866 9379 73 21 23 38 32 29 696 41 164 78 3080 13845 38 1846 53 46 71 26 399
internal_value=-0.000562482 0.0805472 -0.00522856 -0.00571591 -0.00511597 -0.000906272 0.0460888 0.135718 0.356519 -0.00151373 0.000875695 -0.0117058 0.0508463 0.081921 0.152517 0.202547 0.115267 0.092327 0.0552262 0.0422874 0.0249697 0.00314575 0.00646496 0.0159204 0.0296523 0.10118 0.0591529 0.0106079 0.10056 0.0199662
internal_weight=3599.71 195.819 3403.89 3369.33 3198.06 967.54 12.3468 4.01452 1.22662 955.193 764.25 116.815 6.37794 4.88767 2.45618 1.97172 1.20268 169.318 11.2443 34.5579 20.5307 647.435 435.048 119.091 48.1725 3.60373 2.71123 2.43149 0.988987 19.8785
internal_count=160000 1872 158128 157472 149126 43402 585 190 58 42817 33951 5664 313 240 122 99 61 796 100 656 492 28287 18908 5063 1983 137 99 118 47 477
is_linear=0
shrinkage=0.05


Tree=11
num_leaves=31
num_cat=0
split_feature=7 0 0 3 3 2 0 7 2 2 2 0 0 7 0 5 0 0 2 2 7 0 0 0 0 5 0 7 5 7
split_gain=486.206 91.242 13.9107 8.28944 12.4468 12.2269 12.1462 9.61479 7.52531 21.3508 13.2451 8.86099 11.6942 17.0241 9.65772 16.7053 7.94166 15.0868 10.2406 17.2224 19.5854 26.8176 12.8001 25.1331 19.6851 36.1795 22.4131 10.3827 8.14866 7.87741
threshold=2.8579492218081755 1168.1950000000004 2386.0150000000003 2.5000000000000004 3.5000000000000004 2.5000000000000004 318.81500000000005 0.49329154287413374 9.5000000000000018 6.5000000000000009 13.500000000000002 35.685000000000009 181.87000000000003 -0.2132076129900464 32.265000000000008 1.5000000000000002 82.915000000000006 83.915000000000006 16.500000000000004 17.500000000000004 -0.56882390871553079 169.82500000000002 88.105000000000004 97.375000000000014 118.95500000000001 1.5000000000000002 138.30500000000004 -0.21795044534003052 1.5000000000000002 -1.4080596417662739
decision_type=2 2 2 2 2 2 2 2 2 2 2 2 2 2 2 2 2 2 2 2 2 2 2 2 2 2 2 2 2 2
left_child=2 -2 3 6 5 -5 7 8 9 -1 -10 14 29 -14 -11 -16 -12 28 -19 20 -20 22 -22 -24 -25 26 -26 -27 -18 -13
right_child=1 -3 -4 4 -6 -7 -8 -9 10 11 16 12 13 -15 15 -17 17 18 19 -21 21 -23 23 24 25 27 -28 -29 -30 -31
leaf_value=-0.0046249156562909394 0.0013634388249213398 0.086614808768626234 0.029294387203128741 -0.025298427402833269 -0.0038349097090996744 -0.009134551584742856 0.0099420659842816717 -0.016059323846157405 -0.019440820340619877 0.037215394894744666 -0.0072713786200274862 0.13836018861914454 0.10852251838656553 -0.0038803699518749654 0.22203725724645507 0.0084100474619518677 0.2893975354963888 -0.015605321316377836 -0.032632010532303184 0.0092239401510117152 -0.051114741679885223 0.0044461334109642892 0.53483241744976795 -0.001246898349701779 0.7692112811016284 -0.051114741679884994 0.2684927996635621 0.25459681960515174 0.036972604299639132 0.00017473399744295749
leaf_weight=201.19446913711727 38.001889061182737 180.27261274307966 28.922506319358945 133.9732329081744 1266.9921047277749 923.18204181455076 181.96633197553456 144.16507799364626 129.54456942155957 21.502410141751174 157.45920291543007 1.0545712262392033 7.1912135519087315 6.3370984308421594 2.0099128559231754 1.6800745055079458 0.73374839685857185 32.373025052249432 2.7027469333261251 70.389943197369576 0.42665962129831125 2.6960794348269701 0.59732346981763873 1.0026501100510361 0.42665962129831347 0.63998943194747027 0.46932558342814445 0.49065856449305933 0.56659428216516972 46.801004093140364
leaf_count=9582 1606 890 601 6658 59891 43679 7297 6919 6211 981 7528 43 286 276 69 79 30 1503 125 3203 20 119 28 47 20 30 22 23 24 2210
internal_value=-0.000544673 0.0717724 -0.00523213 -0.00553124 -0.00717724 -0.011183 -0.00176008 -0.00431805 -0.00185879 0.00430907 -0.00629037 0.0250708 0.0148232 0.0558694 0.0500399 0.124771 -3.54832e-06 0.0100778 0.00811558 0.0177335 0.0811047 0.12665 0.207936 0.238412 0.179963 0.269614 0.50693 0.0815525 0.179409 0.00321986
internal_weight=3585.77 218.275 3367.49 3338.57 2324.15 1057.16 1014.42 832.455 688.29 287.771 400.519 86.5763 61.3839 13.5283 25.1924 3.68999 270.975 113.515 112.215 79.842 9.45209 6.74935 4.05327 3.62661 3.02928 2.02663 0.895985 1.13065 1.30034 47.8556
internal_count=160000 2496 157504 156903 110228 50337 46675 39378 32459 13526 18933 3944 2815 562 1129 148 12722 5194 5140 3637 434 309 190 170 142 95 42 53 54 2253
is_linear=0
shrinkage=0.05


Tree=12
num_leaves=31
num_cat=0
split_feature=7 0 0 2 0 7 7 6 7 3 2 2 7 0 7 6 2 0 0 0 2 7 0 7 5 7 0 0 7 7
split_gain=433.433 80.0111 12.4519 7.62186 7.35694 11.7176 6.82147 6.90164 8.22757 6.33408 9.35487 6.99585 7.75501 14.3111 7.08017 15.7362 11.3724 18.754 17.8361 10.2351 11.1188 10.7271 11.2585 10.4815 9.2334 7.25188 7.7741 6.84725 8.84065 7.74873
threshold=2.8579492218081755 1168.1950000000004 1972.7500000000002 1.0000000180025095e-35 225.14500000000001 1.3681996504685727 3.7336784786502353 1.5000000000000002 3.0417516246085667 2.5000000000000004 1.5000000000000002 18.500000000000004 -0.13239993705646266 232.16500000000002 0.40971183904842673 1.5000000000000002 20.500000000000004 355.94000000000005 481.56000000000006 325.69500000000005 22.500000000000004 1.297347627751434 363.98000000000008 0.88880473902005164 1.5000000000000002 0.3619869140346697 392.34000000000009 481.56000000000006 0.2207537986220742 -0.010340152574110544
decision_type=2 2 2 2 2 2 2 2 2 2 2 2 2 2 2 2 2 2 2 2 2 2 2 2 2 2 2 2 2 2
left_child=2 -2 3 -1 -5 9 7 8 -3 10 -6 -12 13 -13 15 25 17 -17 -19 -16 21 22 -21 24 -22 26 -14 28 29 -18
right_child=1 6 -4 4 5 -7 -8 -9 -10 -11 11 12 14 -15 19 16 27 18 -20 20 23 -23 -24 -25 -26 -27 -28 -29 -30 -31
leaf_value=-0.015793670448932446 0.0012935451741222107 0.14735588304415706 0.021802035211293345 -0.0061634713631380129 0.067011815439928776 -0.014929454186165873 0.088673843746617353 0.050470548526138803 0.074455975085256393 -0.0013819614847926048 0.0022963808504536912 0.21153680123915139 0.05464168313098397 -0.0098173049963607845 -0.051172496706188488 0.046732965344961727 0.17837616770738587 0.50318121631895518 0.15285427316991737 0.15808809278600386 0.10884172325287544 0.23198086318959585 -0.026635657345991211 0.0095710306071988254 0.38723805281311663 0.19166076075591429 -0.038750081693617572 -0.05148586952456239 0.27477737512595762 -0.051406519982418936
leaf_weight=165.94841937534511 38.051175897940993 4.3199253212660542 42.770031267777085 2383.858243573457 6.7643839139491311 118.81475300341845 111.90140244364738 29.69077087752521 37.195736110210419 423.8129560071975 161.37859396077693 0.7609492707997586 5.1838881392031908 18.066958796232939 4.1552455089986315 1.0191950332373374 0.65282212942838713 0.72033859975635983 0.73306366987526417 0.9550366234034281 0.62388720922172092 0.52932252921164025 6.0508981812745333 0.82004874013364304 0.56989225186407566 0.61680421419441778 3.9082693494856358 0.87448708713054646 0.61325278319418419 0.83765955083072208
leaf_count=8293 1606 46 1177 114283 289 5601 462 193 189 19405 6613 31 194 717 186 39 25 20 23 38 23 20 226 31 21 22 139 32 24 32
internal_value=-0.000529489 0.0672659 -0.00500379 -0.00535034 -0.00479882 -0.000509721 0.0809755 0.0688775 0.0820416 0.00216875 0.00914091 0.00726852 0.0240931 -0.000871051 0.0403771 0.0639219 0.131909 0.211172 0.326484 0.0143317 0.0428356 0.0149435 -0.00145444 0.147201 0.241744 0.0257523 0.0144972 0.0661035 0.114983 0.0492369
internal_weight=3572.2 221.159 3351.04 3308.27 3142.32 758.463 183.108 71.2064 41.5157 639.648 215.835 209.071 47.692 18.8279 28.8641 15.1598 5.45082 2.4726 1.4534 13.7043 9.54909 7.53526 7.00593 2.01383 1.19378 9.70896 9.09216 2.97822 2.10373 1.49048
internal_count=160000 2496 157504 156327 148034 33751 890 428 235 28150 8745 8456 1843 748 1095 550 195 82 43 545 359 284 264 75 44 355 333 113 81 57
is_linear=0
shrinkage=0.05


Tree=13
num_leaves=31
num_cat=0
split_feature=7 0 0 7 5 2 0 0 7 3 2 7 2 7 3 2 0 2 0 7 3 6 7 6 0 2 3 0 0 0
split_gain=388.899 51.4191 22.18 9.20619 8.83038 7.30574 7.05794 9.55595 13.4695 16.6372 17.1912 8.6725 7.33631 9.00923 6.89393 16.1258 31.182 6.73573 11.173 6.03586 5.75332 5.3547 8.56277 5.3037 5.4201 5.21931 10.5029 10.5585 7.59918 6.83044
threshold=3.0417516246085667 1508.8950000000002 1972.7500000000002 2.5764539854694539 2.5000000000000004 1.0000000180025095e-35 181.87000000000003 184.48500000000004 -0.35635876298715596 3.5000000000000004 7.5000000000000009 1.3681996504685727 3.5000000000000004 0.40971183904842673 4.5000000000000009 2.5000000000000004 312.56000000000006 1.5000000000000002 951.33500000000015 1.4478654470199988 2.5000000000000004 1.5000000000000002 3.7336784786502353 1.0000000180025095e-35 191.87500000000003 1.5000000000000002 2.5000000000000004 347.66500000000008 1262.3900000000001 722.96000000000015
decision_type=2 2 2 2 2 2 2 2 2 2 2 2 2 2 2 2 2 2 2 2 2 2 2 2 2 2 2 2 2 2
left_child=2 20 5 -4 -5 -1 -7 8 9 -8 -11 12 13 25 -15 17 -17 18 -16 -13 -2 22 -22 -14 -25 26 27 -9 -28 -29
right_child=1 -3 3 4 -6 6 7 11 -10 10 -12 19 23 14 15 16 -18 -19 -20 -21 21 -23 -24 24 -26 -27 28 29 -30 -31
leaf_value=-0.015366082312896377 -0.011821706454850677 0.079200894208874204 0.013787745023767449 0.042712691552993037 0.14182679475131854 -0.0061034941628580336 0.035655553669727981 -0.0081572763188328366 0.0034355210226576132 0.066837199467623787 0.37866693046066247 -0.046912831464067273 -0.0038780782442359219 -0.0019692623567295294 0.01878679808381372 0.4352379290414794 0.040445016253544741 -0.051076823705285573 0.28915103940884862 -0.0097999005256602795 0.028480233699120752 0.0070633761149204687 0.12222888448241581 -0.021062039408576542 0.0067041201953579148 -0.028308391239876343 -0.02485305488547402 0.17497353858513826 0.12915707028108722 0.026844186223155049
leaf_weight=164.03302370198071 12.85804142616689 162.90862587094307 35.546130573377013 13.311622777953746 2.7036615405231705 2189.9145397096872 2.8802305143326512 3.4864339157938984 8.2528513595461828 0.84283499792218186 0.92933845147490501 11.967923104763029 218.72175189480186 26.471729965880513 2.8632709961384522 0.71969096176326308 1.6396394874900577 2.7477690558880568 0.44098402559757222 129.4925457444042 9.7705438826233131 13.696815062314272 3.2445332203060397 18.310009811073542 438.32081575505435 57.131004184484482 21.022688258439306 1.9868789184838536 0.83267982304096122 1.2793125901371238
leaf_count=8320 385 696 1076 135 27 105724 132 157 395 27 31 577 9750 1301 142 35 83 135 23 6163 315 415 61 870 18955 2825 1079 71 44 51
internal_value=-0.000511258 0.0667828 -0.00457152 0.0279691 0.0594449 -0.00507929 -0.00454196 -0.00094363 0.0417885 0.109823 0.230363 -0.0015319 0.000495496 -0.0108627 0.0105604 0.0499928 0.160873 0.00676722 0.0548695 -0.0129398 0.015658 0.0288856 0.0518509 0.00252415 0.00559075 -0.0195788 -0.00214548 0.0523579 -0.0189853 0.116954
internal_weight=3558.33 202.479 3355.85 51.5614 16.0153 3304.29 3140.25 950.34 12.9053 4.6524 1.77217 937.435 795.975 120.622 34.8831 8.41135 2.35933 6.05202 3.30426 141.46 39.5699 26.7119 13.0151 675.353 456.631 85.739 28.608 6.75263 21.8554 3.26619
internal_count=160000 1872 158128 1238 162 156890 148570 42846 585 190 58 42261 35521 5946 1719 418 118 300 165 6740 1176 791 376 29575 19825 4227 1402 279 1123 122
is_linear=0
shrinkage=0.05


Tree=14
num_leaves=31
num_cat=0
split_feature=7 0 0 7 3 3 2 0 7 2 2 2 0 0 5 0 7 7 0 4 6 0 0 2 2 7 0 7 2 2
split_gain=349.337 46.7409 19.718 7.74888 6.85834 11.3616 10.0986 9.313 9.03173 7.14804 18.6439 12.192 7.47592 9.6066 11.7888 7.26905 14.3695 11.5448 10.1129 6.98542 6.82277 6.68941 11.2676 8.87627 13.2914 14.1931 18.0334 7.88053 7.43476 6.558
threshold=3.0417516246085667 1508.8950000000002 1972.7500000000002 2.5764539854694539 2.5000000000000004 3.5000000000000004 2.5000000000000004 318.81500000000005 0.49329154287413374 9.5000000000000018 6.5000000000000009 13.500000000000002 35.685000000000009 228.46500000000003 1.0000000180025095e-35 29.865000000000006 -0.322207961708528 -0.24085836177848585 32.755000000000003 1.0000000180025095e-35 1.5000000000000002 82.915000000000006 83.915000000000006 16.500000000000004 17.500000000000004 -0.56882390871553079 203.14500000000001 -0.79598472314115032 21.500000000000004 3.5000000000000004
decision_type=2 2 2 2 2 2 2 2 2 2 2 2 2 2 2 2 2 2 2 2 2 2 2 2 2 2 2 2 2 2
left_child=2 -2 4 -4 7 6 -6 8 9 10 29 -11 15 -14 -15 -12 -17 -18 -19 -10 -5 28 -23 -24 25 -25 -27 -26 -13 -1
right_child=1 -3 3 20 5 -7 -8 -9 19 11 12 21 13 14 -16 16 17 18 -20 -21 -22 22 23 24 27 26 -28 -29 -30 -31
leaf_value=0.0047087552571197441 0.014678505920135858 0.07495909420223977 0.012930382655837114 0.08390576829344179 -0.023364457311086471 -0.003157755565244582 -0.0083835960108199423 0.0087948758351943431 -0.0077236378368397965 -0.018488592487204535 0.031601246494325184 -0.00079223362896645394 0.00671912172502137 0.16915431901586406 0.030279656093756897 0.023316771844159607 0.34293114890287624 0.21898837694552672 -0.0010713717202581927 -0.03170718319796844 0.019770534512797283 0.14419272973112704 -0.014769054987415355 -0.03183184201629221 0.047245121428280037 0.14809765393963159 -0.026205182237018922 0.0015118951060384528 -0.027783933630855323 -0.013550082957139102
leaf_weight=105.77828352712095 40.03064502030611 163.50328592956066 35.995932582765818 8.9411544036120194 128.4368434753269 1248.448849670589 906.22880167514086 182.82386205345392 98.05195377394557 125.88382657803595 19.933071032166485 122.30386350303888 53.598251532763243 2.0369963906705362 6.1172374356538057 3.3494014032185078 0.75992338545620475 1.1094941347837441 0.98608870804309834 43.977142047137022 7.7333143036812535 1.5324270632117976 31.65072669275105 2.5968585852533579 11.181234413757918 5.7619606964290124 1.9986354541033504 59.786330334842205 32.236529193818569 91.904831556603312
leaf_count=5172 1176 696 1076 78 6662 59878 43675 7209 4792 6211 888 5927 2515 64 236 137 25 45 34 2215 84 54 1503 125 517 223 86 2686 1601 4410
internal_value=-0.000493276 0.0631032 -0.00436741 0.0259832 -0.00485353 -0.00636876 -0.0102432 -0.00141252 -0.00368131 -0.00128771 0.00473858 -0.00564529 0.0238985 0.0144112 0.0649717 0.0463126 0.0935725 0.17598 0.115438 -0.0151498 0.054161 0.000363903 0.00952297 0.00769629 0.0164395 0.0693506 0.103208 0.00871735 -0.0064226 -0.00377996
internal_weight=3544.68 203.534 3341.14 52.6704 3288.47 2283.11 1034.67 1005.36 822.535 680.506 285.574 394.932 87.8905 61.7525 8.15423 26.138 6.20491 2.85551 2.09558 142.029 16.6745 269.049 114.508 112.976 81.325 10.3575 7.7606 70.9676 154.54 197.683
internal_count=160000 1872 158128 1238 156890 110215 50337 46675 39466 32459 13526 18933 3944 2815 300 1129 241 104 79 7007 162 12722 5194 5140 3637 434 309 3203 7528 9582
is_linear=0
shrinkage=0.05


Tree=15
num_leaves=31
num_cat=0
split_feature=7 0 0 0 2 2 0 2 2 0 0 0 5 7 5 0 7 3 0 2 7 6 7 7 0 0 3 0 2 2
split_gain=315.554 35.6328 26.5049 8.97511 8.48132 7.02915 6.47745 6.12053 9.60525 9.18565 7.237 11.201 23.5829 10.4311 7.40627 8.40069 13.1219 6.61058 6.58613 8.89342 8.56422 9.62204 15.0962 6.26088 6.00594 6.16159 6.55706 5.84321 8.80785 12.1976
threshold=3.3082890553525304 3597.4200000000005 1168.1950000000004 347.66500000000008 8.5000000000000018 3.5000000000000004 106.23500000000001 20.500000000000004 19.500000000000004 363.98000000000008 1262.3900000000001 951.33500000000015 1.0000000180025095e-35 -0.14011813505591791 1.5000000000000002 554.70500000000004 0.24766762567100628 2.5000000000000004 355.94000000000005 9.5000000000000018 0.33137389412521207 1.0000000180025095e-35 0.70203475010381389 0.15853715577013092 392.34000000000009 1013.3400000000001 3.5000000000000004 382.30500000000006 22.500000000000004 21.500000000000004
decision_type=2 2 2 2 2 2 2 2 2 2 2 2 2 2 2 2 2 2 2 2 2 2 2 2 2 2 2 2 2 2
left_child=1 3 4 -1 -2 -5 -6 8 18 23 11 14 -13 -14 -11 16 17 -16 19 -7 -21 -22 -23 -10 27 -26 -27 -9 29 -29
right_child=2 -3 -4 5 6 7 -8 24 9 10 -12 12 13 -15 15 -17 -18 -19 -20 20 21 22 -24 -25 25 26 -28 28 -30 -31
leaf_value=-0.0054681782775830813 -0.043103802285436199 0.051366023213147066 0.071605163528591115 -0.010446533426250635 0.15587941765681954 -0.011907448158758192 0.01841644029105783 0.0071756079798302522 0.25131095700004508 -0.0092372151539117011 -0.036752563193431773 0.39591813540124549 0.21628644906309669 -0.051485626044643157 0.094886781196109965 -0.0031793288433148506 0.025321947161628406 0.26627940511671327 0.0036840696894775318 0.023972492927091232 0.0086714599001423524 0.40650517166223721 0.10985565133590709 0.035898666682221352 -0.026789533199200462 0.028527956237454268 -0.040808131648530602 0.025867004323001843 -0.051446501006754831 0.33234943606400424
leaf_weight=2800.7957648318261 6.1464176084846249 28.956817883998156 157.16886004805565 98.142881663516164 0.96168054267763903 3.808127745985983 7.8716708216816187 6.8338374979794008 0.82297139614820725 7.113190731033689 3.3575029689818612 0.67049947753548567 0.56055625900626194 1.0356166847050186 1.0183343421667799 3.1235700454562902 2.6113671977072954 1.2570965494960544 335.24336449056864 2.6550455633550882 0.83523499779403221 0.65525577403604995 1.2412934415042398 0.57159588672220707 38.935772817581892 12.286569587886335 4.7196170426905146 0.64709720760583855 0.60430907644331444 0.65148288384079933
leaf_count=135992 261 216 673 4766 25 157 289 278 23 290 140 26 24 40 28 141 111 39 13768 105 37 26 52 21 1764 427 207 25 23 26
internal_value=-0.000475887 -0.00385947 0.0655483 -0.00433966 0.00199872 0.00163072 0.0333819 0.00437918 0.0068812 0.0388027 0.0304535 0.0434288 0.147081 0.0425526 0.0278938 0.060866 0.101803 0.189575 0.00482912 0.046577 0.0879216 0.150074 0.212348 0.163019 -0.00980158 -0.0158228 0.00928556 0.0287528 0.106243 0.179626
internal_weight=3531.3 3359.15 172.149 3330.2 14.9798 529.402 8.83335 431.259 366.581 22.1423 20.7477 17.3902 2.26667 1.59617 15.1236 8.01037 4.8868 2.27543 344.438 9.19496 5.38683 2.73178 1.89655 1.39457 64.6787 55.942 17.0062 8.73673 1.90289 1.29858
internal_count=160000 158752 1248 158536 575 22544 314 17778 15028 883 839 699 90 64 609 319 178 67 14145 377 220 115 78 44 2750 2398 634 352 74 51
is_linear=0
shrinkage=0.05


Tree=16
num_leaves=31
num_cat=0
split_feature=7 0 0 7 2 0 7 6 7 6 0 3 4 2 2 0 7 0 7 7 0 0 6 0 0 2 0 7 2 0
split_gain=285.436 54.3705 8.0805 7.20963 6.58864 5.71324 9.06054 5.62388 5.12802 4.96588 4.89539 4.81817 7.78608 8.11033 5.61951 5.31195 16.4246 5.69948 5.31849 17.2511 8.98204 25.3427 11.6606 28.7171 8.7718 11.2799 12.1273 16.468 5.16477 4.72474
threshold=2.8579492218081755 1508.8950000000002 2386.0150000000003 3.7336784786502353 1.0000000180025095e-35 225.14500000000001 1.3681996504685727 1.5000000000000002 3.0417516246085667 1.0000000180025095e-35 228.46500000000003 2.5000000000000004 1.0000000180025095e-35 10.500000000000002 1.5000000000000002 289.27500000000003 -1.0763655596225277 252.15500000000003 -0.19897735866883495 0.14624372096671392 372.87000000000006 355.94000000000005 1.5000000000000002 318.81500000000005 690.79000000000008 9.5000000000000018 951.33500000000015 0.031098276439074313 7.5000000000000009 1168.1950000000004
decision_type=2 2 2 2 2 2 2 2 2 2 2 2 2 2 2 2 2 2 2 2 2 2 2 2 2 2 2 2 2 2
left_child=2 29 4 7 -1 -6 9 8 -3 -7 -11 14 13 15 -12 16 -13 -18 28 20 21 22 23 -20 -22 26 -26 -28 -17 -2
right_child=1 3 -4 -5 5 6 -8 -9 -10 10 11 12 -14 -15 -16 18 17 -19 19 -21 24 -23 -24 -25 25 -27 27 -29 -30 -31
leaf_value=-0.014337084438704446 0.00053741772449487424 0.1166290042663488 0.020858151383320159 0.075891046377582067 -0.0051508740076757174 -0.0042035282514401662 -0.012796955264457704 0.038208134316652861 0.060673893884313573 0.044276579519048481 0.062414255920000605 0.30235724835431083 -0.011248132215741776 -0.0012739726472620091 0.0098535978445049299 -0.028852904194470865 0.020829433826905337 -0.039821485021486913 0.39260074204423184 0.016141952213558793 -0.012725579178134808 0.41628433862331171 -0.015021987792619261 -0.051278598559764688 0.27105289369468588 -0.051410670940433612 -0.051626254608467162 0.23718283722604183 0.02706809686201779 0.034214650900806845
leaf_weight=159.55625706911087 38.580936994403601 4.6390113160014144 31.902793379500508 103.99633873999119 2332.4673011992127 208.52437957935035 120.10128011740744 28.857892531901598 34.889801360666752 7.8567429631948462 5.2707911022007456 0.4239478930830981 92.917356221005321 122.23404645547271 144.50417564995587 6.6767119020223644 6.9384014513343564 8.7687824536114913 0.78853770717978344 23.713607894256711 2.5894580725580454 0.74834233336150635 1.3799998592585325 0.67739495262503624 1.2389835305511954 0.90731192752718914 1.1506154425442221 0.86437723226845253 10.820487013086675 14.265546739101408
leaf_count=8319 1606 33 601 427 114283 9372 5809 157 153 353 203 16 4600 5576 5677 268 297 377 33 972 102 28 58 28 39 34 39 25 395 120
internal_value=-0.000458805 0.0539972 -0.00418338 0.0675991 -0.00442835 -0.00391861 -0.000181479 0.0549895 0.0672407 0.00215311 0.00516243 0.00445207 0.000612243 0.00641484 0.0117033 0.0202999 -0.0047411 -0.0130299 0.0281348 0.0396454 0.0935216 0.157372 0.0892903 0.187488 0.0595261 0.104486 0.147955 0.072265 0.00572934 0.00962836
internal_weight=3518.25 225.23 3293.02 172.383 3261.12 3101.56 769.096 68.3867 39.5288 648.994 440.47 432.613 282.838 189.921 149.775 67.687 16.1311 15.7072 51.5558 34.0586 10.345 3.59427 2.84593 1.46593 6.75075 4.16129 3.25398 2.01499 17.4972 52.8465
internal_count=160000 2496 157504 770 156903 148584 34301 343 186 28492 19120 18767 12887 8287 5880 2711 690 674 2021 1358 386 147 119 61 239 137 103 64 663 1726
is_linear=0
shrinkage=0.05


Tree=17
num_leaves=31
num_cat=0
split_feature=7 0 0 0 3 2 2 0 2 2 2 6 3 0 7 7 7 0 0 2 7 2 6 0 0 3 0 7 0 0
split_gain=259.274 28.5213 22.7283 7.36053 6.71458 7.04463 9.93822 12.4811 6.03657 5.33991 8.20115 8.17467 9.44034 7.68891 5.6908 5.66382 19.2928 6.95155 5.59501 6.99498 5.8106 6.16003 5.85928 5.3946 5.59624 5.83793 5.12058 5.44947 5.10309 8.46704
threshold=3.3082890553525304 3597.4200000000005 1508.8950000000002 347.66500000000008 2.5000000000000004 18.500000000000004 4.5000000000000009 1379.1900000000003 3.5000000000000004 20.500000000000004 19.500000000000004 1.5000000000000002 3.5000000000000004 1168.1950000000004 -0.11518671893993211 0.40971183904842673 0.10888955771759425 382.30500000000006 355.94000000000005 9.5000000000000018 0.33137389412521207 16.500000000000004 1.0000000180025095e-35 392.34000000000009 1013.3400000000001 3.5000000000000004 514.6350000000001 1.7855510647347348 577.27500000000009 122.02500000000002
decision_type=2 2 2 2 2 2 2 2 2 2 2 2 2 2 2 2 2 2 2 2 2 2 2 2 2 2 2 2 2 2
left_child=1 3 4 -1 -2 6 7 -6 -5 10 18 -12 13 15 -14 16 17 -13 19 -10 -21 22 -22 -11 -25 -26 27 -17 29 -8
right_child=2 -3 -4 8 5 -7 28 -9 9 23 11 12 14 -15 -16 26 -18 -19 -20 20 21 -23 -24 24 25 -27 -28 -29 -30 -31
leaf_value=-0.004997057652758743 -0.018015774488525895 0.045047246031120008 0.067372414007560444 -0.0098647586083021651 -0.054425815259463606 -0.0225838247016838 0.17415556190278633 0.15925189575224435 -0.011397027493691779 0.026543966316136633 0.010538432327756996 0.220956962679833 0.093701584473404667 -0.0096603817589724847 -0.051226379558626189 -0.051334883607053711 0.38916974353595757 0.027082807767563746 0.0032597192280617395 0.022226432632199866 -0.051181234898863497 0.23497622817231376 0.12789494024662801 -0.026019860086340059 0.025782767924509203 -0.040328696575409932 0.16831642018911336 0.15339477377975783 0.11321103580914911 -0.0017722099285860824
leaf_weight=2772.8117642085999 9.0156110227108019 29.952469799667597 144.64823971688747 96.768233187496662 3.3675913512706783 4.0693520605564109 0.88394092209637021 0.85739053785800923 3.760780166834591 8.9777825400233251 13.6991001740098 0.72664537280797992 1.0290031097829344 1.1738810092210767 1.9819978903979061 0.97067608870565913 0.79231968894600857 1.2712601423263548 337.60164946876466 2.7167934626340866 0.62864245660603102 0.87249440141022194 1.6708393134176731 37.796821627765894 12.680783225223424 4.5328608937561503 0.91061477549374092 0.48867219686508179 5.3491559661924839 3.0223240461200476
leaf_count=135992 226 216 605 4766 112 78 25 4 157 352 541 13 33 41 90 39 20 46 13768 105 28 31 56 1764 427 207 39 21 83 115
internal_value=-0.00044212 -0.0035239 0.0595654 -0.00396424 0.0170562 0.0350732 0.0524782 -0.0110634 0.00142844 0.00394482 0.00624959 0.0351347 0.0711909 0.10584 -0.00169756 0.132114 0.180392 0.0975955 0.00433272 0.041873 0.0758931 0.121859 0.0789383 -0.00939267 -0.0152576 0.00837367 0.0752761 0.0172202 0.0814842 0.0380381
internal_weight=3505.03 3333.82 171.214 3303.86 26.5654 17.5498 13.4804 4.22498 531.052 434.284 370.295 23.0442 9.34507 6.33407 3.011 5.16019 2.79023 1.99791 347.251 9.64955 5.88877 3.17198 2.29948 63.9882 55.0105 17.2136 2.36996 1.45935 9.25542 3.90626
internal_count=160000 158752 1248 158536 643 417 339 116 22544 17778 15028 883 342 219 123 178 79 59 14145 377 220 115 84 2750 2398 634 99 60 223 140
is_linear=0
shrinkage=0.05


Tree=18
num_leaves=31
num_cat=0
split_feature=7 0 0 2 0 3 2 2 0 7 0 0 7 7 6 2 2 5 2 5 0 2 7 7 7 5 2 7 0 3
split_gain=235.19 25.3491 21.2478 7.2677 7.37014 5.9219 6.24466 6.26605 11.0228 5.09333 4.02683 3.84713 8.39558 7.46611 5.17161 4.39326 4.85646 8.82683 9.44318 9.45807 8.13256 7.76514 6.40608 3.75045 11.0005 13.3193 7.95938 10.6645 8.28279 15.9863
threshold=3.3082890553525304 3597.4200000000005 1508.8950000000002 1.0000000180025095e-35 347.66500000000008 2.5000000000000004 20.500000000000004 4.5000000000000009 1379.1900000000003 3.7336784786502353 3597.4200000000005 9.3650000000000002 -0.98593175959947266 -0.22229050521886465 1.0000000180025095e-35 4.5000000000000009 13.500000000000002 2.5000000000000004 16.500000000000004 1.0000000180025095e-35 7.495000000000001 21.500000000000004 -1.0221051357281319 -0.20831915057007047 -0.155898634032612 2.5000000000000004 2.5000000000000004 -0.1628227523491044 760.00500000000011 2.5000000000000004
decision_type=2 2 2 2 2 2 2 2 2 2 2 2 2 2 2 2 2 2 2 2 2 2 2 2 2 2 2 2 2 2
left_child=1 3 5 -1 11 -2 7 8 -7 10 -4 12 14 -14 -5 -16 22 18 19 -18 21 -20 -17 -6 25 26 -25 28 -28 -30
right_child=2 -3 9 4 23 6 -8 -9 -10 -11 -12 -13 13 -15 15 16 17 -19 20 -21 -22 -23 -24 24 -26 -27 27 -29 29 -31
leaf_value=-0.014210792932466033 -0.017365140496499794 0.042014245264909711 0.029901872074836983 -0.0038457126361672467 -0.0048993313105311657 -0.054236636441938005 -0.056616173429968442 0.060601607504149793 0.14351495538340775 0.070578175029280515 0.061840677230669341 -0.0045058492395557651 -0.037856400216655782 0.17225587877877735 0.12322045623768658 -0.014124134505705585 0.066928110287074391 -0.051050535155529334 0.061347405102193976 0.37725448221334507 -0.051048187187624695 0.32743150298081292 0.19351611513749356 0.25262381298407549 0.0033028294869566241 -0.03524036936356123 -0.007169120714478748 0.21319645039661561 -0.051372913592178021 0.1848271217523241
leaf_weight=159.02955601364374 8.8890254665166157 30.494449552148581 15.762181162834166 5.2956041116267469 134.69811143539846 3.2142438478767934 1.7688702289015044 12.005955550819634 0.90254931151866902 101.39405170083046 26.394904628396034 2599.7203118298203 7.5752104837447405 0.44778926670551111 2.0084055196493855 4.061007207259534 0.42380004934966586 0.9874252751469611 0.88966734148561977 0.58369806781411171 0.92490951344370831 0.39633891731500626 0.40885527059435833 0.65850448608398249 362.44020953960717 3.1205381620675317 3.3978377729654303 1.1338080652058131 1.0825775284320118 2.1175882089883089
leaf_count=8411 226 216 69 262 5711 112 41 260 4 427 109 127593 374 22 100 200 21 49 44 29 46 20 20 33 15144 135 140 46 42 94
internal_value=-0.000424772 -0.00336298 0.0568777 -0.0037834 -0.003254 0.0159919 0.0325646 0.0423488 -0.0108824 0.0645053 0.049899 -0.00432188 0.0156038 -0.0261294 0.0365569 0.0565826 0.0411561 0.0797215 0.119843 0.246717 0.0620275 0.143353 0.00486858 0.00225434 0.00483111 0.0529519 0.0857525 0.0715404 0.0471981 0.104923
internal_weight=3492.23 3321.9 170.332 3291.4 3132.37 26.7806 17.8916 16.1227 4.11679 143.551 42.1571 2623.72 24.0027 8.023 15.9797 10.6841 8.6757 4.20584 3.21841 1.0075 2.21092 1.28601 4.46986 508.649 373.951 11.5109 8.39032 7.73181 6.598 3.20017
internal_count=160000 158752 1248 158536 150125 643 417 376 116 605 178 128780 1187 396 791 529 429 209 160 50 110 64 220 21345 15634 490 355 322 276 136
is_linear=0
shrinkage=0.05


Tree=19
num_leaves=31
num_cat=0
split_feature=7 0 7 3 3 2 0 7 2 2 2 2 4 7 6 0 2 5 7 5 0 6 7 7 6 0 0 0 7 2
split_gain=214.307 42.3176 7.70878 6.26229 10.4651 10.3238 7.82667 8.21455 6.96447 6.68013 16.4836 11.43 6.55651 6.48957 18.0103 6.43404 18.3525 11.9839 6.23454 12.3591 10.1574 17.2954 15.7597 12.6513 18.1622 9.19934 8.44499 19.486 7.23724 7.20166
threshold=2.8579492218081755 1508.8950000000002 3.7336784786502353 2.5000000000000004 3.5000000000000004 3.5000000000000004 318.81500000000005 0.49329154287413374 13.500000000000002 9.5000000000000018 6.5000000000000009 13.500000000000002 1.0000000180025095e-35 0.46001537058598241 1.0000000180025095e-35 14.655000000000003 7.5000000000000009 2.5000000000000004 -0.72364515074525004 1.0000000180025095e-35 197.41500000000002 1.0000000180025095e-35 -0.19897735866883495 -0.57627802262059169 1.0000000180025095e-35 72.415000000000006 66.27500000000002 67.995000000000019 0.031098276439074313 8.5000000000000018
decision_type=2 2 2 2 2 2 2 2 2 2 2 2 2 2 2 2 2 2 2 2 2 2 2 2 2 2 2 2 2 2
left_child=3 -2 -3 6 5 -5 7 9 -7 10 13 -11 -9 -1 -15 16 -12 -18 -17 20 23 -22 -23 24 -20 26 28 -28 -21 -30
right_child=1 2 -4 4 -6 8 -8 12 -10 11 15 -13 -14 14 -16 18 17 -19 19 25 21 22 -24 -25 -26 -27 27 -29 29 -31
leaf_value=-0.0034797532550329214 0.0082382998214487659 0.046492085031550556 0.068161826260367639 -0.020062673757728303 -0.002020605894869239 -0.0020090138096407278 0.0085405712566173127 -0.0065035669666255475 -0.011066471892871035 -0.017251387828111534 -0.051185644726524052 0.0012800433886097379 -0.030395230543811175 0.34509853576968252 -0.010042169499859352 -0.0027583650054590664 0.09422505229911364 0.32175055453408608 -0.051157315321466945 0.015761511288645717 -0.051728299836761221 0.35405383371414439 0.086154490891778179 0.027642773902665858 0.28347910312381336 -0.0066499151419985502 0.38095574685408046 0.029567998051283458 0.040791635205963447 0.19204232720539488
leaf_weight=191.2892682235688 53.488076575100422 69.716525200754404 99.779952943325043 171.23017646372318 1235.4894523993134 418.31267380341887 197.98373802565038 94.305924296379089 430.80843481421471 121.41656840965152 1.6516447979956854 264.41677474044263 41.287677671760321 0.50485606677830119 1.2189078871160743 21.67732167430222 2.0630693882703786 0.80437559820711602 0.61361604183912355 17.174418635666377 0.78776775859296266 1.1083119958639149 1.0877446811646219 11.407107351347804 1.1953647099435327 23.578062895685434 0.57865799963474174 1.2399814277887342 2.1747864615172139 1.2333139143884184
leaf_count=9497 1726 343 427 9150 60117 20156 7479 4731 21224 6211 73 12722 2188 25 60 971 91 35 28 772 26 33 35 510 55 1071 28 60 100 56
internal_value=-0.000408139 0.0470127 0.0592487 -0.00365508 -0.00511548 -0.00886289 -0.000363285 -0.00255908 -0.00660439 -0.000279062 0.00557927 -0.00455155 -0.0137785 -0.00260943 0.0939715 0.0234635 0.0815785 0.158051 0.0203316 0.0283814 0.0659362 0.14926 0.221359 0.0471239 0.169969 0.0151497 0.0380946 0.141373 0.0289691 0.0955258
internal_weight=3479.62 222.985 169.496 3256.64 2255.84 1020.35 1000.8 802.816 849.121 667.222 281.389 385.833 135.594 193.013 1.72376 88.3755 4.51909 2.86744 83.8565 62.1791 16.1999 2.98382 2.19606 13.2161 1.80898 45.9792 22.4012 1.81864 20.5825 3.4081
internal_count=160000 2496 770 157504 110647 50530 46857 39378 41380 32459 13526 18933 6919 9582 85 3944 199 126 3745 2774 687 94 68 593 83 2087 1016 88 928 156
is_linear=0
shrinkage=0.05


Tree=20
num_leaves=31
num_cat=0
split_feature=7 0 0 2 0 0 7 3 5 2 3 7 0 7 2 0 7 7 3 7 0 7 3 2 2 7 2 2 7 3
split_gain=195.453 20.9371 18.5103 6.53973 6.57447 8.36104 10.5344 10.2553 12.4591 6.10943 6.41248 5.82329 8.69331 5.9232 5.73982 6.69856 5.56194 5.50249 8.41992 17.8091 6.5209 12.6188 5.25381 5.22652 6.04591 9.79819 7.40789 8.95492 7.99386 10.6155
threshold=3.3082890553525304 3597.4200000000005 1508.8950000000002 1.0000000180025095e-35 181.87000000000003 184.48500000000004 -0.35635876298715596 3.5000000000000004 1.5000000000000002 3.5000000000000004 4.5000000000000009 0.18341658827155158 1013.3400000000001 0.20792910453443061 10.500000000000002 1379.1900000000003 0.40971183904842673 1.2279890877013007 3.5000000000000004 1.1922052879628806 194.52500000000003 1.9747058429951621 2.5000000000000004 22.500000000000004 18.500000000000004 -1.3623744718849651 10.500000000000002 7.5000000000000009 0.14624372096671392 2.5000000000000004
decision_type=2 2 2 2 2 2 2 2 2 2 2 2 2 2 2 2 2 2 2 2 2 2 2 2 2 2 2 2 2 2
left_child=1 3 -2 -1 -5 6 7 -6 -9 16 11 23 13 -13 15 -14 -7 18 -18 -20 21 -19 -16 24 26 -26 27 -11 -28 -30
right_child=2 -3 -4 4 5 9 -8 8 -10 10 -12 12 14 -15 22 -17 17 20 19 -21 -22 -23 -24 -25 25 -27 28 -29 29 -31
leaf_value=-0.013450525413754284 0.014521501185985906 0.037764286090193257 0.059616612074656954 -0.0045281560590411185 0.035108216018520898 -0.018168108877699332 0.0046005832199383879 0.26677588886413234 0.01489492933670144 0.0001314376045997478 0.045287788121425449 -0.051204429493805319 -0.0099320571207144534 -0.0057188886399522441 0.021362444384762848 0.042126918930802032 -0.0098915549390967191 -0.050997583020368477 0.031783231571096547 0.32660256130092419 -0.017570982870064641 0.33159137061013161 -0.011596897930909776 -0.019360017966775212 0.18933983596495352 0.016767560042073495 -0.0063219526508195914 0.024443866731830174 0.1631846286613412 0.0026436716716176931
leaf_weight=155.88709193654358 27.16126755066216 31.098039511591196 140.30173742771149 2120.6249656900764 2.8981987442821255 82.146026417613029 8.0842704363167268 1.4087296463549139 0.75357481092214573 83.652915332466364 8.2833758462220413 7.3187033608555785 8.4390739537775534 324.56762657500803 19.624531177803874 23.074663450941443 15.781964922323825 0.47867378219962375 15.685414802283049 0.52952903322875577 29.540573896840215 0.39203625917434692 31.495580526068807 20.445582820102572 0.83075051568448444 82.966680038720369 150.50834467075765 69.209149235859513 1.6318244207650412 2.7905896697193384
leaf_count=8411 643 216 605 105881 132 4233 397 30 28 3572 360 325 339 14942 600 680 790 25 769 26 1419 20 1213 949 34 3591 6854 2717 67 132
internal_value=-0.000394149 -0.00306819 0.0523025 -0.00345663 -0.0029562 0.000402399 0.0400146 0.0965892 0.178994 -0.00012925 0.00151401 0.00107533 -0.00310888 -0.00672193 0.0114024 0.028186 -0.0096195 0.00163277 0.0161069 0.0414111 -0.013596 0.121263 0.00105588 0.00528476 0.0065715 0.0184784 0.00332982 0.011139 -0.00437512 0.0618816
internal_weight=3467.61 3300.15 167.463 3269.05 3113.16 992.538 13.1448 5.0605 2.1623 979.394 834.839 826.556 414.52 331.886 82.6338 31.5137 144.554 62.4082 31.9969 16.2149 30.4113 0.87071 51.1201 412.036 391.59 83.7974 307.793 152.862 154.931 4.42241
internal_count=160000 158752 1248 158536 150125 44244 587 190 58 43657 36375 36015 18099 15267 2832 1019 7282 3049 1585 795 1464 45 1813 17916 16967 3625 13342 6289 7053 199
is_linear=0
shrinkage=0.05


Tree=21
num_leaves=31
num_cat=0
split_feature=7 0 0 2 0 0 7 3 7 7 2 7 0 7 2 0 3 3 2 2 0 7 2 3 0 0 3 3 7 3
split_gain=177.883 18.6778 17.4847 6.01592 5.94349 7.18802 8.21248 6.80167 7.90589 5.7683 5.57635 5.75318 8.34197 5.82346 5.57176 5.62981 5.21633 5.15244 5.59752 7.56631 6.92793 5.1252 5.01906 8.29661 8.11866 6.52671 6.65138 14.003 4.93771 7.2174
threshold=3.3082890553525304 3597.4200000000005 1508.8950000000002 1.0000000180025095e-35 181.87000000000003 184.48500000000004 -0.35635876298715596 3.5000000000000004 -0.52407677880585235 3.7336784786502353 3.5000000000000004 0.18341658827155158 1013.3400000000001 0.20792910453443061 10.500000000000002 1262.3900000000001 4.5000000000000009 2.5000000000000004 18.500000000000004 14.500000000000002 577.27500000000009 0.40971183904842673 1.5000000000000002 2.5000000000000004 278.77000000000004 951.33500000000015 3.5000000000000004 4.5000000000000009 1.2279890877013007 3.5000000000000004
decision_type=2 2 2 2 2 2 2 2 2 2 2 2 2 2 2 2 2 2 2 2 2 2 2 2 2 2 2 2 2 2
left_child=1 3 17 -1 -5 6 7 -6 -9 -4 21 16 13 -13 15 -14 -12 -2 19 20 -19 22 23 24 -7 -25 -27 -28 29 -23
right_child=2 -3 9 4 5 10 -8 8 -10 -11 11 12 14 -15 -16 -17 -18 18 -20 -21 -22 28 -24 25 -26 26 27 -29 -30 -31
leaf_value=-0.012948791766480623 -0.017560852550820811 0.035368065375422267 0.041929593006585698 -0.00432096207557811 0.032225257852437073 -0.029975752950348447 0.0043508210892610139 0.074172301231158838 0.25547650363926139 0.064076047411333589 0.0049859366056546981 -0.051144404515769876 -0.017178448700030064 -0.0053058007556421802 0.00099612946648462708 0.036894822257730185 0.058887574702047675 -0.021121207313748114 -0.023018613828366969 0.10742027327187864 0.058804805835624308 -0.0094888089957325152 -0.026544288745413636 -0.026244037336629777 0.08312059375601849 -0.050917342165626503 0.2727575556984741 -0.050993401980949649 -0.013119199443047409 0.037653260990410553
leaf_weight=153.88314130716026 8.9267830513417739 31.533084094524384 42.313275843858719 2111.435613591224 2.996930517256259 2.3644306268543032 8.1199895739555341 1.5760507211089136 0.97216946631669987 96.358955830335617 414.15298584848642 7.0792464613914481 5.8479619044810525 326.04941289685667 51.17664885148406 27.214041786268353 4.5376756638288489 4.9258804880082625 4.0821027364581814 3.4885907582938662 6.0304024908691645 15.633114024996756 53.179448191076517 18.223162004724148 4.8249317780137062 0.77332637272775118 0.77215528115630128 0.58858428709208965 30.046768082305789 16.891665773466229
leaf_count=8411 226 216 178 105881 132 112 397 38 20 427 17916 330 237 15086 1813 806 187 185 78 66 88 790 2828 1011 167 44 40 31 1464 795
internal_value=-0.000379276 -0.00292834 0.050101 -0.00329896 -0.00282063 0.000369497 0.0363824 0.0832877 0.143342 0.0573185 -0.000132998 0.00142898 -0.00272527 -0.00627991 0.0113318 0.0273304 0.00557011 0.0136446 0.0286802 0.0432902 0.0228705 -0.00924625 -0.0175713 -0.000248749 0.0459256 -0.0165557 0.0661749 0.13272 0.00149424 0.0149943
internal_weight=3456 3289.87 166.126 3258.34 3104.46 993.021 13.6651 5.54515 2.54822 138.672 979.356 836.058 417.367 333.129 84.2387 33.062 418.691 27.4538 18.527 14.4449 10.9563 143.298 80.726 27.5466 7.18936 20.3572 2.13407 1.36074 62.5715 32.5248
internal_count=160000 158752 1248 158536 150125 44244 587 190 58 605 43657 36375 18272 15416 2856 1043 18103 643 417 339 273 7282 4233 1405 279 1126 115 71 3049 1585
is_linear=0
shrinkage=0.05


Tree=22
num_leaves=31
num_cat=0
split_feature=7 0 7 6 3 3 2 2 0 7 4 2 2 0 2 7 6 0 7 2 0 6 7 7 0 5 6 0 5 0
split_gain=162.499 33.2532 8.27884 5.96764 5.59251 9.47803 9.0304 6.31127 6.25725 7.46308 6.24189 6.17902 13.976 14.8047 10.5867 7.54911 8.25673 9.44574 10.7837 7.32158 8.20419 7.32053 8.96402 23.0422 39.2061 12.5828 11.9127 15.9551 11.709 8.70045
threshold=2.8579492218081755 1508.8950000000002 3.7336784786502353 1.5000000000000002 2.5000000000000004 3.5000000000000004 3.5000000000000004 13.500000000000002 318.81500000000005 0.49329154287413374 1.0000000180025095e-35 9.5000000000000018 7.5000000000000009 14.655000000000003 14.500000000000002 0.28926391094792753 1.0000000180025095e-35 184.48500000000004 0.31707344017615841 20.500000000000004 45.715000000000011 1.0000000180025095e-35 -0.70871958387332057 -0.74692118256432705 83.915000000000006 1.0000000180025095e-35 1.5000000000000002 191.87500000000003 1.0000000180025095e-35 110.31500000000001
decision_type=2 2 2 2 2 2 2 2 2 2 2 2 2 2 2 2 2 2 2 2 2 2 2 2 2 2 2 2 2 2
left_child=4 -2 3 -3 8 6 -6 -8 9 11 -11 12 -1 -14 15 -13 -17 18 -18 20 -16 -22 23 25 -25 -23 27 29 -24 -27
right_child=1 2 -4 -5 5 -7 7 -9 -10 10 -12 14 13 -15 19 16 17 -19 -20 -21 21 22 28 24 -26 26 -28 -29 -30 -31
leaf_value=-0.00022602058698068238 0.0072777283096923081 0.05234080435118274 0.062150441784638057 0.023018477429378598 -0.018876065297517286 -0.001633782275981965 -0.0017060873445183542 -0.010377540610598045 0.0078227448615343295 -0.0058079567096020884 -0.029505058283949556 -0.017473429901597476 0.12938054626852458 0.020843563650281241 -0.0064795581171126554 -0.050962068288733169 0.29779224172526825 -0.051119337372230546 0.066752999708119015 -0.0094641318270040197 -0.0014438471136308606 -0.037231662456627145 0.05758382664290828 0.65894312645447783 0.068232867843263587 0.12368330481802772 -0.015198054159672486 0.34789800030465762 0.0029235568474888242 -0.0018976682406401256
leaf_weight=218.32373986952007 54.040111765265465 39.642982982099056 94.426452532410622 30.858885280787945 165.06230271328241 1225.8252393249422 415.73638130910695 423.66943258792162 200.24243949912488 92.889045158401132 39.650195071473718 137.20418632403016 3.3187188133597365 58.951317377388477 54.969976909458637 2.2588253896683437 0.57329087890684594 1.4549490325152872 4.2430236265063286 82.902314729988575 33.21178150549531 3.602720081806182 13.329651655629275 0.4225400760769833 0.83794063329696655 4.291205804795025 2.7868070639669895 0.62624544836580742 36.973894774913788 2.0324708465486765
leaf_count=10809 1726 186 427 157 9150 60117 20156 21224 7479 4731 2188 7152 126 2591 2731 122 28 68 205 4048 1569 172 608 21 40 208 135 26 1703 97
internal_value=-0.000363921 0.0413174 0.0524708 0.0395063 -0.00319362 -0.00458432 -0.00818508 -0.00608279 -7.66677e-05 -0.00206671 -0.0128971 0.000100616 0.00573351 0.0266281 -0.00403998 -0.014636 0.0310039 0.0605269 0.0942538 0.00250358 0.00898462 0.0176486 0.0274184 0.0619098 0.266252 0.042601 0.0721401 0.107161 0.0174077 0.0833208
internal_weight=3444.36 218.968 164.928 70.5019 3225.39 2230.29 1004.47 839.406 995.097 794.855 132.539 662.316 280.594 62.27 381.722 145.734 8.53009 6.27126 4.81631 235.988 153.085 98.1153 64.9035 14.5999 1.26048 13.3394 9.73673 6.94992 50.3035 6.32368
internal_count=160000 2496 770 343 157504 110647 50530 41380 46857 39378 6919 32459 13526 2717 18933 7575 423 301 233 11358 7310 4579 3010 699 61 638 466 331 2311 305
is_linear=0
shrinkage=0.05


Tree=23
num_leaves=31
num_cat=0
split_feature=7 0 0 7 2 2 0 0 7 2 3 2 7 7 0 2 7 0 2 0 6 0 7 2 0 2 2 2 5 6
split_gain=148.592 15.6022 15.5291 6.90228 6.61215 5.4039 5.10863 6.2917 6.564 5.44427 5.83058 5.51071 5.28709 5.11497 4.98587 4.91463 5.24523 12.3788 5.98024 10.4173 8.63984 5.59872 6.3659 11.0536 17.0705 9.89087 6.23756 11.3794 8.89322 5.74957
threshold=3.3082890553525304 3597.4200000000005 1168.1950000000004 3.7336784786502353 8.5000000000000018 1.0000000180025095e-35 181.87000000000003 184.48500000000004 -0.35635876298715596 3.5000000000000004 3.5000000000000004 10.500000000000002 -0.58422493066016856 -0.52407677880585235 3597.4200000000005 3.5000000000000004 0.40971183904842673 1168.1950000000004 4.5000000000000009 1508.8950000000002 1.0000000180025095e-35 1168.1950000000004 0.34646320530503499 18.500000000000004 467.36000000000007 4.5000000000000009 20.500000000000004 22.500000000000004 1.5000000000000002 1.0000000180025095e-35
decision_type=2 2 2 2 2 2 2 2 2 2 2 2 2 2 2 2 2 2 2 2 2 2 2 2 2 2 2 2 2 2
left_child=1 5 4 14 -2 -1 -7 8 9 -8 11 12 -11 -12 -4 -9 21 -18 19 -19 -21 22 -17 25 26 -24 -25 28 -28 -27
right_child=2 -3 3 -5 -6 6 7 15 -10 10 13 -13 -14 -15 -16 16 17 18 -20 20 -22 -23 23 24 -26 29 27 -29 -30 -31
leaf_value=-0.012243277744797195 -0.042718525980616144 0.032104677684272963 0.01817373236150915 0.05892516474589813 0.024206525697504918 -0.0039597895351357413 -0.052050557568801226 -0.0087019392392304155 0.0043163695913676801 0.028150066606162583 0.085533852992132425 -0.019567692504058185 0.24519510134320432 0.23039083734421634 0.05065391334108086 0.0048983471652463539 -0.0079601987992883091 0.19798839378704036 0.012061863537982685 0.14701447847870489 -0.029702221383527114 -0.017115031269867249 0.17237116330549643 -0.051272950112522031 0.28220047888139971 0.054233574031764355 0.042156774487051484 -0.05132940864693375 0.31424700537795408 -0.024716799622775551
leaf_weight=151.14284791983664 5.8952261153608552 31.941497728228569 21.828551895916462 99.025729708373547 9.8692808598279935 2095.5509652290493 0.7556824441999187 141.46513350773603 8.1248694006353599 0.62988914363086224 1.4437508247792723 1.5795394740998743 0.50595480948686622 1.054505657404661 25.756874516606331 447.72111509181559 279.08556742966175 1.2001650184392918 61.85041263140738 1.0051788948476317 2.2175089940428734 27.765183594077826 0.89474904909729858 1.039685279130935 1.0468114484101532 3.3215291220694763 0.53551726415753342 0.76436377502977837 0.68375448510050774 7.5427696760743856
leaf_count=8411 261 216 102 462 314 105881 25 7282 397 27 32 68 21 17 109 19363 13112 43 1914 30 65 1161 41 45 34 154 24 32 28 329
internal_value=-0.00035163 -0.00266926 0.0463343 0.0514047 -0.000820474 -0.00301219 -0.00256034 0.000395226 0.0335639 0.0733727 0.091552 0.0408344 0.124831 0.146677 0.0357545 -8.2707e-05 0.00137464 -0.00334729 0.0160783 0.0722451 0.025417 0.0046938 0.00600008 0.0371621 0.108181 0.0125805 0.0479279 0.0999222 0.194742 -0.000579396
internal_weight=3433.24 3270.87 162.376 146.611 15.7645 3238.93 3087.78 992.234 14.0942 5.96932 5.21364 2.71538 1.13584 2.49826 47.5854 978.139 836.674 345.359 66.2733 4.42285 3.22269 491.315 463.55 15.8292 4.07013 11.759 3.02332 1.98364 1.21927 10.8643
internal_count=160000 158752 1248 673 575 158536 150125 44244 587 190 165 116 48 49 211 43657 36375 15164 2052 138 95 21211 20050 687 163 524 129 84 52 483
is_linear=0
shrinkage=0.05


Tree=24
num_leaves=31
num_cat=0
split_feature=7 0 0 2 7 0 0 6 2 2 0 7 7 2 7 5 3 2 7 0 7 7 7 5 7 2 0 0 2 7
split_gain=135.783 15.0238 13.9535 4.96137 4.92312 4.73001 4.29596 4.14462 3.88212 5.51009 5.32364 7.32542 4.97199 9.41644 8.63829 5.64233 4.34338 9.87934 5.83305 14.0192 10.9505 7.88166 5.84718 17.5564 6.5381 5.53689 11.7121 23.0011 5.20786 5.0204
threshold=3.3082890553525304 1684.2950000000003 3597.4200000000005 1.0000000180025095e-35 3.7336784786502353 225.14500000000001 221.74500000000003 1.0000000180025095e-35 3.5000000000000004 10.500000000000002 1262.3900000000001 0.14624372096671392 0.61992212768006938 7.5000000000000009 0.68089020523615573 1.5000000000000002 2.5000000000000004 14.500000000000002 -0.11518671893993211 239.80500000000004 -0.35635876298715596 0.063763421681406682 -1.0000000180025095e-35 1.0000000180025095e-35 -0.088989091588334138 16.500000000000004 533.71500000000015 318.81500000000005 21.500000000000004 2.1145661008787102
decision_type=2 2 2 2 2 2 2 2 2 2 2 2 2 2 2 2 2 2 2 2 2 2 2 2 2 2 2 2 2 2
left_child=2 -2 3 -1 -3 6 -5 -7 -9 10 11 -10 13 -12 -14 -16 17 -11 19 20 -19 22 24 -24 -20 26 27 -21 -26 -23
right_child=1 4 -4 5 -6 7 -8 8 9 16 12 -13 14 -15 15 -17 -18 18 21 25 -22 29 23 -25 28 -27 -28 -29 -30 -31
leaf_value=-0.011772704107626706 0.015185151027542802 0.037890175526970701 0.03015561169276626 -0.003458207456744738 0.059197963377193775 -0.004426462703915497 -0.033898088336368502 -0.0072208247065586491 0.018758177712962901 -0.012765548455164283 -0.05151063554541592 -0.0026606569831534961 0.21627636696711081 0.054714132073608306 0.0095258668855232077 0.07070310746502588 -0.0039622826083481671 0.2363861401057423 0.13443823182210177 -0.010836445334069619 0.0014201701080539411 0.012385565664246007 0.33419321421524695 0.058330422288552078 -0.032203038157344224 -0.027163912903355264 -0.051439293303643691 0.3370382994230004 0.10401878955415794 0.058009125393092609
leaf_weight=149.37123396992683 34.212753996253014 39.425825148820877 32.296238090842962 2256.2022170946002 86.768746063113213 256.45848201215267 11.650669911876319 76.271100791171193 82.58632936514914 36.28026844188571 4.1165804807096738 77.267041131854057 0.74441913887858291 4.2301297448575497 7.1418311186134797 7.9804115500301123 185.87110431306064 1.041773499920964 1.342194080352783 1.2350096553564105 0.94626916199922817 35.960788423195481 0.7748873215168709 2.255631135776639 2.5790433287620549 16.503062104806304 1.8479700647294519 0.77230180986225594 0.96383754909038533 7.2444883771240702
leaf_count=8411 671 167 216 114113 410 11466 575 3917 3122 1496 153 3471 19 143 195 196 8589 37 43 50 36 1331 22 69 90 627 68 29 33 235
internal_value=-0.000337878 0.0445735 -0.00254642 -0.00287343 0.052541 -0.00244188 -0.00361459 0.000831714 0.00325727 0.00492331 0.0117146 0.00840513 0.033563 0.00232429 0.0499962 0.0418107 0.00069475 0.00858201 0.0191241 -0.0021851 0.124547 0.0284389 0.0743065 0.128867 0.0404592 -0.0145608 0.0393885 0.123006 0.00485599 0.0200355
internal_weight=3422.34 160.407 3261.94 3229.64 126.195 3080.27 2267.85 812.415 555.956 479.685 184.067 159.853 24.2134 8.34671 15.8667 15.1222 295.619 109.748 73.4673 22.3464 1.98804 51.1209 7.91559 3.03052 4.88507 20.3583 3.85528 2.00731 3.54288 43.2053
internal_count=160000 1248 158752 158536 577 150125 114688 35437 23971 20054 7299 6593 706 296 410 391 12755 4166 2670 847 73 1823 257 91 166 774 147 79 123 1566
is_linear=0
shrinkage=0.05


Tree=25
num_leaves=31
num_cat=0
split_feature=7 0 0 7 2 0 2 3 7 7 5 0 7 7 0 2 0 2 2 2 7 0 7 5 7 5 7 0 3 2
split_gain=124.008 14.3797 12.4892 4.97187 4.55123 4.26734 4.20479 5.0601 4.77972 5.50506 4.56758 4.95038 5.40503 4.38074 7.40828 6.1732 5.15806 6.52097 4.96748 5.83524 7.98439 11.7388 9.12756 6.92484 13.0155 20.7704 13.4973 9.03391 14.3874 22.4511
threshold=3.3082890553525304 1684.2950000000003 3597.4200000000005 3.7336784786502353 1.0000000180025095e-35 191.87500000000003 3.5000000000000004 4.5000000000000009 -0.40653075571284431 -0.65009051008275798 1.0000000180025095e-35 247.86500000000004 0.76850074480001662 0.15853715577013092 200.11500000000004 20.500000000000004 1972.7500000000002 10.500000000000002 22.500000000000004 18.500000000000004 -1.2389197272698895 392.34000000000009 -0.40653075571284431 1.5000000000000002 0.10888955771759425 2.5000000000000004 -0.1479461569033492 600.0200000000001 3.5000000000000004 20.500000000000004
decision_type=2 2 2 2 2 2 2 2 2 2 2 2 2 2 2 2 2 2 2 2 2 2 2 2 2 2 2 2 2 2
left_child=2 -2 4 -3 -1 -6 -7 13 9 -9 -10 -12 -13 14 15 -8 -15 -18 19 -16 21 -21 -22 -24 26 -26 27 28 -25 -30
right_child=1 3 -4 -5 5 6 7 8 10 -11 11 12 -14 16 18 -17 17 -19 -20 20 22 -23 23 24 25 -27 -28 -29 29 -31
leaf_value=-0.011315010957295264 0.014299524340569076 0.036094621512622743 0.028350105413416822 0.057606480821787293 -0.003568990977912051 -0.0077415451368061704 0.022396804174343934 0.01169900386776414 -0.051284435387155762 0.18616178672062353 0.14128094428192678 -0.030281740432033202 0.08373013108605265 -0.0039660818811151658 0.0015569858858189966 0.096926781419049021 0.041875732309174088 -0.001218948599642788 -0.022434926792629841 0.22197071738881463 -0.0070292459731117951 -0.051796319538026825 0.0088892125573900044 0.053333024077455674 -0.051480749687859997 0.31009140532331847 -0.0014952813638608861 0.0017296313088680335 0.072801371179472524 0.3567187375164278
leaf_weight=147.68654298037291 34.507291130721569 39.320401236414909 32.626606468111277 84.758895814418793 2130.0302280448377 133.75653132423759 15.648259934037926 0.79357615299522866 1.6778622716665248 1.0510092098265884 1.0381110068410633 2.3844136595726013 1.843042343854904 372.58712799474597 278.10622295923531 3.3781512342393389 14.420296382158993 22.43562052026391 17.407955722883344 1.0956730190664519 29.355587001889944 0.609314290806651 22.363828057423234 4.7810095418244618 0.62028096616268036 1.1043175552040339 10.963663436472418 2.8359062969684601 1.6117734760046007 1.225881192833185
leaf_count=8411 671 167 216 410 108230 6976 751 32 70 33 41 102 73 17084 11720 163 292 555 813 37 1255 22 923 206 24 38 427 132 70 56
internal_value=-0.000324945 0.0428495 -0.00242945 0.0507894 -0.00274125 -0.00232921 0.000470888 0.00182813 0.0395622 0.111105 0.0205563 0.0434482 0.019424 0.0014139 0.00519831 0.0356296 -0.00220103 0.0156423 0.0036422 0.00492211 0.0171449 0.124134 0.0147082 0.0287306 0.0479042 0.180046 0.0372641 0.0779109 0.106268 0.195455
internal_weight=3412.03 158.587 3253.44 124.079 3220.81 3073.13 943.095 809.339 8.78801 1.84459 6.94343 5.26557 4.22746 800.551 391.108 19.0264 409.443 36.8559 372.081 354.673 76.5672 1.70499 74.8622 45.5067 23.1428 1.7246 21.4182 10.4546 7.61866 2.83765
internal_count=160000 1248 158752 577 158536 150125 41895 34919 351 65 286 216 175 34568 16637 914 17931 847 15723 14910 3190 59 3131 1876 953 62 891 464 332 126
is_linear=0
shrinkage=0.05


Tree=26
num_leaves=31
num_cat=0
split_feature=7 0 7 6 3 3 2 2 2 2 2 7 0 6 2 0 0 7 0 2 7 7 7 0 5 7 0 0 7 7
split_gain=113.542 25.4859 8.12345 5.83125 4.84395 8.82861 8.0032 5.14323 9.04405 10.387 13.3426 13.8036 10.133 8.85485 7.52921 17.7814 11.1508 25.2123 7.49074 7.0498 6.79683 8.81394 8.12738 12.1498 11.1993 12.3972 8.16343 7.1351 6.43196 6.18802
threshold=2.8579492218081755 1508.8950000000002 3.7336784786502353 1.5000000000000002 2.5000000000000004 3.5000000000000004 2.5000000000000004 21.500000000000004 16.500000000000004 9.5000000000000018 6.5000000000000009 2.5764539854694539 533.71500000000015 1.5000000000000002 17.500000000000004 57.015000000000008 284.2050000000001 2.1965752893543145 35.685000000000009 3.5000000000000004 2.2732683441691077 -0.1628227523491044 0.27500196473945165 628.25000000000011 1.5000000000000002 -0.070763621611214231 1972.7500000000002 1088.4350000000002 0.10888955771759425 0.91396543102285377
decision_type=2 2 2 2 2 2 2 2 2 2 2 2 2 2 2 2 2 2 2 2 2 2 2 2 2 2 2 2 2 2
left_child=4 -2 3 -3 7 6 -6 8 9 10 11 19 -11 -13 15 29 -17 -18 -12 -1 21 -14 23 -23 -25 -26 -24 28 -27 -10
right_child=1 2 -4 -5 5 -7 -8 -9 14 12 18 13 20 -15 -16 16 17 -19 -20 -21 -22 22 26 24 25 27 -28 -29 -30 -31
leaf_value=0.0042360624315693242 0.0058173345874480585 0.045704137368907355 0.055676240286355441 0.016788364729907437 -0.019918511069531984 -0.0011143452061412133 -0.0058527729423543152 -0.011562308023301344 -0.031078502569226032 -0.011781603565032547 0.039484435255712463 0.25667371969465508 -0.011264429826539891 0.038785184647691692 0.0062606960587287767 0.076117157707892374 -0.034683070363017016 0.26738758586435274 0.010625696074610801 -0.011895204366432391 -0.054174496080641822 0.31733019138948365 0.0012666620540573732 0.00034708221146252601 -0.05142128516487926 0.17324533147635135 0.093955909664688975 0.09755857568367185 0.4043808439264342 0.14926923982636628
leaf_weight=142.88231853768229 54.914938511326909 39.093927685171366 86.363471433520317 31.47110178694129 114.36215125210583 1213.1200974155217 874.0195611640811 84.420757900923491 10.021367296576496 262.33258137479424 28.619557978585362 0.81217925436794636 11.207025818526747 1.0948700495064259 165.9396599624306 17.658339032903317 5.9398582354187957 0.78167718835175026 104.91881325095892 128.77011398412287 3.0384066216647616 0.54221727512777107 10.45035266317427 2.8951328005641699 0.65569843165576491 0.66711105033755325 3.074325203895568 1.0069402568042276 0.54843044094741344 0.49933029711246568
leaf_count=7241 1726 186 427 157 6677 60117 43853 4009 505 13301 1166 39 420 44 7476 772 217 25 4581 6224 82 19 413 107 25 23 84 38 20 26
internal_value=-0.000312885 0.0351342 0.0453933 0.0328081 -0.00266667 -0.00397238 -0.00748027 0.000240467 0.00134224 -0.00132935 0.00385486 -0.00246951 -0.00844928 0.13158 0.0107005 0.03181 0.0552546 0.000446067 0.0168106 -0.00341057 0.0171972 0.0241819 0.0442043 0.091035 0.0697818 0.139626 0.0223361 0.19599 0.27753 -0.0225189
internal_weight=3402.12 211.843 156.929 70.565 3190.28 2201.5 988.382 988.777 904.356 703.516 407.098 273.559 296.418 1.90705 200.84 34.9006 24.3799 6.72154 133.538 271.652 34.0856 31.0472 19.8402 6.31553 5.77331 2.87818 13.5247 2.22248 1.21554 10.5207
internal_count=160000 2496 770 343 157504 110647 50530 46857 42848 33827 19295 13548 14532 83 9021 1545 1014 242 5747 13465 1231 1149 729 232 213 106 497 81 43 531
is_linear=0
shrinkage=0.05


Tree=27
num_leaves=31
num_cat=0
split_feature=7 0 0 7 2 6 5 5 2 0 0 2 0 7 7 6 2 2 5 2 0 0 7 2 6 2 3 7 7 7
split_gain=103.893 13.9661 10.4466 7.15447 8.87125 6.23418 4.66877 4.53173 4.11604 3.86118 3.70222 5.09424 3.29943 7.5533 5.93856 4.21489 3.54076 4.17568 6.99799 5.59623 7.13817 6.46281 4.45453 4.26197 3.15637 6.09825 5.66605 5.41357 13.809 5.46104
threshold=3.3082890553525304 3597.4200000000005 3597.4200000000005 3.7336784786502353 2.5000000000000004 1.5000000000000002 1.5000000000000002 1.0000000180025095e-35 1.0000000180025095e-35 347.66500000000008 355.94000000000005 8.5000000000000018 9.3650000000000002 -0.98593175959947266 -0.22229050521886465 1.0000000180025095e-35 4.5000000000000009 13.500000000000002 2.5000000000000004 16.500000000000004 7.495000000000001 7.495000000000001 -1.0221051357281319 21.500000000000004 1.0000000180025095e-35 17.500000000000004 3.5000000000000004 0.33137389412521207 0.70203475010381389 -0.030334967659919467
decision_type=2 2 2 2 2 2 2 2 2 2 2 2 2 2 2 2 2 2 2 2 2 2 2 2 2 2 2 2 2 2
left_child=2 3 8 4 -2 -5 -7 -6 -1 12 11 -11 13 15 -15 -10 -17 22 19 20 -19 23 -18 -21 26 27 -13 29 -29 -26
right_child=1 -3 -4 5 7 6 -8 -9 9 10 -12 24 -14 14 -16 16 17 18 -20 21 -22 -23 -24 -25 25 -27 -28 28 -30 -31
leaf_value=-0.010717068289052292 -0.051750157182653238 0.053731476012502638 0.025807515467152875 0.053645191503169855 0.049178100641776024 -0.012681685402023369 0.047286185779281467 0.0052487171302768735 -0.0025287154949111528 -0.013029018733242546 0.0011208772921176831 -0.051362401883369914 -0.0030821328856869908 -0.037117427346766409 0.13552031460577602 0.10927438402300123 -0.013506646568182845 0.087634004576741115 -0.050965756611335712 0.05797699295036414 0.33021321619775357 -0.050963178292642533 0.14274285965928801 0.23719320839646035 0.12710120374666795 0.0063815774004756564 0.097685221503994751 0.29322121282532615 0.052410052142913825 -0.051364527414785449
leaf_weight=145.53512212075293 5.4181552138179532 82.84764538705349 32.923058416694403 24.339206969365478 8.2883823756128567 8.1146908272057754 5.4092303030192843 20.126710824668407 5.1541884113103213 5.2415790995582929 496.72738647647202 1.7421740740537626 2523.8658581962809 7.1946743670850992 0.53519289754331012 2.1818060465157023 3.993746971711519 0.71959551796317123 0.91047033853828896 0.9168825261294844 0.52416522242128849 0.85241393744945515 0.51496322266757033 0.51981266029179096 0.83945513889193535 2.5837096851319075 1.0057272426784039 1.0131618455052378 1.44349611364305 0.87593076750636079
leaf_count=8411 84 407 216 194 113 79 53 318 262 242 20762 71 127593 374 22 100 200 29 49 44 21 46 20 20 29 90 40 25 52 34
internal_value=-0.000302046 0.0397488 -0.00221371 0.0235913 0.00688246 0.0385218 0.011304 0.0180625 -0.00250157 -0.00211075 0.0018538 0.0265439 -0.00290661 0.0155378 -0.0251645 0.034854 0.0521596 0.0382395 0.0726384 0.104493 0.189866 0.0581066 0.00433942 0.122819 0.0483697 0.066747 0.00318878 0.104131 0.151724 0.0359709
internal_weight=3392.36 154.544 3237.81 71.6964 33.8332 37.8631 13.5239 28.4151 3204.89 3059.36 511.473 14.7452 2547.88 24.0179 7.72987 16.288 11.1339 8.95205 4.44334 3.53287 1.24376 2.28911 4.50871 1.4367 9.50365 6.75575 2.7479 4.17204 2.45666 1.71539
internal_count=160000 1248 158752 841 515 326 132 431 158536 150125 21345 583 128780 1187 396 791 529 429 209 160 50 110 220 64 341 230 111 140 77 63
is_linear=0
shrinkage=0.05


Tree=28
num_leaves=31
num_cat=0
split_feature=7 0 0 7 2 6 5 5 2 0 0 6 6 7 0 0 2 7 7 0 2 3 0 7 7 7 5 3 0 0
split_gain=94.9749 13.4332 9.36521 6.57858 8.08862 5.76292 4.21335 3.97035 3.77033 3.57814 4.09833 3.70184 3.70564 6.42559 5.97786 5.03787 4.81951 7.59232 6.59944 9.33992 9.14078 7.27303 16.3015 5.26411 4.94384 8.61715 22.5955 5.80603 6.99431 9.95655
threshold=3.3082890553525304 3597.4200000000005 3597.4200000000005 3.7336784786502353 2.5000000000000004 1.5000000000000002 1.5000000000000002 1.0000000180025095e-35 1.0000000180025095e-35 225.14500000000001 221.74500000000003 1.0000000180025095e-35 1.5000000000000002 0.98896812603354811 1972.7500000000002 425.69000000000005 18.500000000000004 0.66058430862245399 0.61992212768006938 256.39500000000004 12.500000000000002 4.5000000000000009 413.45000000000005 0.79203410441852851 -0.44319806643999621 -0.37044141672245751 1.5000000000000002 2.5000000000000004 533.71500000000015 256.39500000000004
decision_type=2 2 2 2 2 2 2 2 2 2 2 2 2 2 2 2 2 2 2 2 2 2 2 2 2 2 2 2 2 2
left_child=2 3 8 4 -2 -5 -7 -6 -1 10 -10 -11 14 16 -13 -15 18 24 -14 20 -20 -21 23 -23 -18 26 -26 28 29 -27
right_child=1 -3 -4 5 7 6 -8 -9 9 11 -12 12 13 15 -16 -17 17 -19 19 21 -22 22 -24 -25 25 27 -28 -29 -30 -31
leaf_value=-0.010289771582333454 -0.050139658512488951 0.052188090511856224 0.024310381227846147 0.051540557050542862 0.045793021987055045 -0.012058951928793998 0.044918243125689733 0.0049727329320850963 -0.0028902910005027048 -0.0041582835520301278 -0.033192031625650369 0.006035001561303187 -0.0038928338306367175 -0.024356167909731302 0.044668602445530774 -0.0016108131859877098 -0.0098627502646515524 -0.034032884719028537 0.050729870764273689 0.0051146739015147831 0.24820304899218393 0.13523831630112271 -0.051357321103608293 0.36279153742103526 -0.0046091032116020733 -0.051507721251779881 0.35463867859233017 0.011422754616924161 -0.0052580103962479134 0.10457571712982179
leaf_weight=144.03876886796206 5.3152304440736762 81.078171983361244 33.195819146931171 24.073326015844941 8.4516322091221827 8.1072472445666772 5.4096503462642422 20.180133644491434 2230.0942684151232 254.93112615868449 11.214765882119535 238.06414823886007 137.13242399226874 41.172971004620194 10.452412456274031 59.561965594999492 7.2262272853404275 5.8068462349474421 1.963619504123929 22.144815189763907 0.83529359847307194 0.53650632500648388 0.87285484001040448 0.48293019831180573 1.0735895484685922 1.1965124290436522 0.73897377215325821 17.547528091818094 3.2142834179103366 6.994384465739131
leaf_count=8411 84 407 216 194 113 79 53 318 114113 11466 575 10401 5914 2045 245 2423 304 258 93 944 40 25 37 20 49 43 31 793 100 206
internal_value=-0.000289427 0.0382541 -0.00211031 0.0224618 0.00650639 0.0368707 0.0107441 0.0170222 -0.00238462 -0.00201169 -0.00304191 0.000832139 0.00311611 -0.000544182 0.0076599 -0.0109074 0.0044804 0.0192149 0.000544605 0.02322 0.109663 0.0131545 0.107241 0.243035 0.0273536 0.036095 0.141855 0.029474 0.057247 0.0817753
internal_weight=3383.11 152.615 3230.49 71.5372 33.947 37.5902 13.5169 28.6318 3197.3 3053.26 2241.31 811.949 557.018 308.502 248.517 100.735 207.767 43.7983 163.968 26.836 2.79891 24.0371 1.89229 1.01944 37.9915 30.7653 1.81256 28.9527 11.4052 8.1909
internal_count=160000 1248 158752 841 515 326 132 431 158536 150125 114688 35437 23971 13325 10646 4468 8857 1784 7073 1159 133 1026 82 45 1526 1222 80 1142 349 249
is_linear=0
shrinkage=0.05


Tree=29
num_leaves=31
num_cat=0
split_feature=7 0 7 6 3 3 2 2 0 7 2 7 7 2 0 2 2 2 2 7 0 7 7 7 7 2 0 0 2 0
